tree
version=v4
num_class=1
num_tree_per_iteration=1
label_index=0
max_feature_idx=11
objective=quantile
feature_names=k_pct_career swstr_pct csw_pct putaway_rate bf_per_start k_last3 fb_velo_asof days_rest opp_k_pct opp_k_pct_vs_hand is_home n_prior_starts
feature_infos=[0.04878048780487805:0.41935483870967744] [0.038095238095238099:0.28915662650602408] [0.19291338582677164:0.44785276073619634] [0.10526315789473684:0.90000000000000002] [8:26.333333333333332] [0.017857142857142856:0.484375] [85.303651047661745:99.639534883720927] [4:30] [0.1524822695035461:0.30813953488372092] [0.10256410256410256:0.31363636363636366] [0:1] [3:73]
tree_sizes=2476 2801 2845 2861 2854 2829 2848 2839 2859 2850 2855 2867 2860 2861 2861 2834 2857 2847 2848 2860 2854 2863 2854 2869 2876 2877 2870 2878 2869 2895 2856 2857 2884 2879 2862 2857 2853 2871 2889 2868 2871 2864 2884 2884 2885 2868 2878 2877 2863 2888 2868 2898 2862 2876 2881 2878 2893 2875 2888 2880 2860 2880 2887 2880 2877 2894 2875 2882 2888 2883 2873 2875 2871 2848 2878 2877 2883 2891 2879 2880 2864 2900 2896 2893 2895 2868 2874 2901 2887 2890 2884 2864 2880 2880 2878 2864 2904 2879 2910 2905 2878 2884 2876 2905 2884 2895 2895 2888 2880 2899 2889 2908 2888 2894 2918 2902 2902 2900 2907 2891 2888 2902 2888 2911 2902 2887 2921 2885 2876 2902 2893 2882 2878 2887 2901 2907 2850 2900 2894 2874 2884 2881 2889 2885 2894 2886 2884 2909 2886 2901 2886 2897 2925 2875 2884 2878 2923 2917 2880 2873 2873 2861 2903 2902 2902 2911 2873 2887 2909 2877 2885 2896 2869 2890 2881 2877 2889 2874 2877 2881 2882 2901 2901 2911 2888 2892 2886 2885 2919 2906 2891 2878 2912 2909 2902 2916 2908 2886 2906 2897 2879 2888 2871 2904 2919 2879 2877 2860 2895 2885 2880 2897 2887 2916 2919 2901 2906 2912 2926 2910 2892 2922 2910 2907 2905 2896 2930 2924 2942 2899 2910 2917 2923 2883 2874 2903 2877 2878 2908 2894 2873 2880 2881 2870 2904 2882 2908 2902 2875 2893 2876 2876 2892 2892 2910 2882 2909 2911 2896 2921 2916 2903 2902 2920 2907 2893 2871 2892 2886 2874 2888 2894 2899 2886 2909 2879 2895 2878 2869 2882 2875 2874 2888 2885 2888 2894 2885 2907 2913 2909 2884 2890 2907 2895 2918 2929 2918 2920 2912 2927 2899 2901 2907 2894 2902 2915 2897 2892 2912 2889 2904 2921 2899 2916 2912 2897 2889 2893 2903 2930 2906 2932 2910 2904 2897 2898 2926 2918 2898 2911 2914 2907 2894 2905 2886 2875 2870 2914 2894 2893 2900 2907 2891 2925 2910 2885 2882 2898 2910 2900 2910 2894 2902 2915 2903 2896 2886 2891 2899 2884 2865 2904 2901 2901 2902 2896 2904 2904 2902 2889 2872 2881 2906 2882 2872 2887 2892 2898 2892 2893 2875 2855 2886 2874 2883 2885 2869 2874 2883 2856 2874 2888 2890 2871 2885 2887 2866 2890 2890 2887

Tree=0
num_leaves=31
num_cat=0
split_feature=0 6 2 0 9 8 9 6 11 9 3 0 6 2 6 8 5 5 9 9 8 9 9 2 0 8 3 4 2 2
split_gain=1.57463 0.555278 0.654996 0.902898 0.68906 0.842288 0.42964 0.501143 1.10418 0.319111 0.411871 0.507719 0.444171 0.502176 0.709353 0.305074 0.307445 0.413882 0.570174 0.233485 0.210581 0.183343 0.181013 0.20095 0.153547 0.149966 0.219741 0.263469 0.117835 0.163378
threshold=0.24580418759682646 93.431641169688831 0.31587465226640493 0.31919647911241938 0.21598359666475153 0.23018609809468751 0.24049135952206244 94.59253684651766 36.500000000000007 0.20054228932529697 0.45687467180115532 0.28500734573947112 96.315945084025444 0.3019261950446705 94.736617026509791 0.2378269970150815 0.24626532887402455 0.31455026455026464 0.21916184179994971 0.23090481998697585 0.25291686772329663 0.20710879019304787 0.24888390632785254 0.28800216866867501 0.30086030517415641 0.23280850767721975 0.48867908407382094 21.966091954022989 0.281133730545229 0.28219776635887223
decision_type=2 2 2 2 2 2 2 2 2 2 2 2 2 2 2 2 2 2 2 2 2 2 2 2 2 2 2 2 2 2
left_child=6 25 9 4 24 -6 28 -8 20 -3 15 21 13 14 19 16 -11 18 -18 -13 -9 -12 -23 -24 -4 -2 27 -27 -1 -30
right_child=1 2 3 -5 5 -7 7 8 -10 10 11 12 -14 -15 -16 -17 17 -19 -20 -21 -22 22 23 -25 -26 26 -28 -29 29 -31
leaf_value=9.9499999999999993 10 10 10.106500041484832 10 10.199999999999999 10.050000000000001 10 9.9815001130104068 10.191500055789948 10 10.101000094413758 9.9130000829696652 10 10.004000091552735 10.1 10.213000082969666 10.102000045776368 9.9565000414848335 10.082500064373017 10.050000000000001 10.081000065803527 9.9515004277229302 10 10.096000051498413 10.010500133037567 10 9.9935001015663154 10.1 10.050000000000001 10
leaf_weight=3396 446 315 30 85 31 34 801 80 40 68 34 30 123 65 59 59 33 30 46 32 47 300 34 37 32 48 72 47 60 599
leaf_count=3396 446 315 30 85 31 34 801 80 40 68 34 30 123 65 59 59 33 30 46 32 47 300 34 37 32 48 72 47 60 599
internal_value=9.99943 10.0006 10.0011 10.0037 10.0063 10.0099 9.99895 9.99989 10.0024 10.0007 10.0011 10.0005 10.0021 10.0036 10.0055 10.0029 10.0019 10.0035 10.0054 10.0017 10.0001 9.99937 9.99904 10.0013 10.0025 9.99932 10.0006 10.0022 9.99872 9.99934
internal_weight=7113 2090 1477 212 127 65 5023 968 167 1265 950 714 309 186 121 236 177 109 79 62 127 405 371 71 62 613 167 95 4055 659
internal_count=7113 2090 1477 212 127 65 5023 968 167 1265 950 714 309 186 121 236 177 109 79 62 127 405 371 71 62 613 167 95 4055 659
is_linear=0
shrinkage=1


Tree=1
num_leaves=31
num_cat=0
split_feature=6 11 9 2 1 8 10 4 1 9 11 4 4 3 6 6 11 6 2 9 9 8 3 9 6 6 2 4 8 4
split_gain=1.50201 0.894479 1.60074 1.5833 0.743102 0.634908 0.438823 0.398912 0.356926 0.28724 0.280348 0.259742 0.502213 0.31574 0.382525 0.242346 0.434116 0.183222 0.167355 0.369786 0.255621 0.465379 0.240461 0.186749 0.166443 0.368906 0.148775 0.144864 0.143455 0.269654
threshold=93.781729004054526 34.500000000000007 0.23189656278526696 0.29522073727242099 0.12594468028402281 0.25480712498071095 1.0000000180025095e-35 22.590326340326346 0.11165969416085141 0.26649099244139363 44.500000000000007 19.825757575757578 20.506097560975615 0.44337299005483788 94.93060227997141 92.48659506021103 11.500000000000002 94.33077920535365 0.29704280029189406 0.20886469387862164 0.20912106447951745 0.20694972069935777 0.46514866878279465 0.22929783854158728 95.784312442828366 96.315945084025444 0.25932452686449142 23.243434343434348 0.22987473759174096 24.930633520449081
decision_type=2 2 2 2 2 2 2 2 2 2 2 2 2 2 2 2 2 2 2 2 2 2 2 2 2 2 2 2 2 2
left_child=9 4 18 6 -2 11 10 -7 -8 26 -4 -6 -13 14 -14 -11 -17 -15 20 -20 21 22 -3 -22 -19 -26 -1 -27 -28 -30
right_child=1 2 3 -5 5 7 8 -9 -10 15 -12 12 13 17 -16 16 -18 24 19 -21 23 -23 -24 -25 25 27 28 -29 29 -31
leaf_value=-0.097499999999999976 -0.0080397573566085793 -0.047499999999999966 0.14292529124593853 0.095648039748194288 -0.047575021386146513 0.23848203808593668 0.046925038695335354 0.046151498423579101 0.11236056220721738 -0.00099980831146240234 -0.00072499692440034002 0.078950051069259675 0.0020000457763671878 0.047499999999999966 0.050000000000000003 -0.049524955153465278 0.067100069522857672 0 -0.00045675535153790749 0.12550607108496709 -0.047499999999999966 0.064107573013298211 0.092348098184589847 0.0025000000000000356 0.095000000000000029 -0.0056551625141675601 -0.047499999999999966 0.050000000000000003 0 0.049050046205520635
leaf_weight=1250 1321 129 32 34 93 35 30 30 59 135 44 43 33 37 39 34 55 273 30 49 211 56 37 36 43 70 1972 59 809 35
leaf_count=1250 1321 129 32 34 93 35 30 30 59 135 44 43 33 37 39 34 55 273 30 49 211 56 37 36 43 70 1972 59 809 35
internal_value=-0.000199535 0.000696 0.00217848 0.0060075 0.000161773 0.00141204 0.00393072 0.00609849 0.00629445 -0.000788859 0.00111688 0.000962375 0.00134532 0.000935137 0.004 0.000951113 0.00296111 0.000469981 0.000779601 0.00289375 0.000418087 0.00164574 0.000305391 -0.000687499 0.000184979 0.00139885 -0.000884926 5.00014e-05 -0.000682995 -0.000137277
internal_weight=7113 2823 747 199 2076 755 165 65 89 4290 76 690 597 554 72 224 89 482 548 79 469 222 166 247 445 172 4066 129 2816 844
internal_count=7113 2823 747 199 2076 755 165 65 89 4290 76 690 597 554 72 224 89 482 548 79 469 222 166 247 445 172 4066 129 2816 844
is_linear=0
shrinkage=0.05


Tree=2
num_leaves=31
num_cat=0
split_feature=0 9 6 9 0 6 6 1 1 9 0 4 4 9 2 6 8 5 6 5 9 1 2 8 8 1 5 1 0 5
split_gain=1.9936 0.737924 0.631651 0.520801 0.475976 0.755551 0.645738 0.789149 0.7041 0.62951 0.686912 0.39839 0.531193 0.348185 0.519425 0.34217 0.294787 0.267952 0.445577 0.34137 0.261541 0.257063 0.232992 0.228535 0.304807 0.333627 0.181543 0.22644 0.168796 0.167545
threshold=0.24839055052842443 0.24049135952206244 90.998314863092673 0.20017108952855983 0.30086030517415641 94.712953163495811 95.721918428417197 0.14931559087989726 0.15244364142278477 0.26166063095196962 0.26137102494384684 24.930633520449081 25.080863121185704 0.20912106447951745 0.279086620901844 95.694935237153388 0.23046950646723033 0.24305019305019307 95.549622789475279 0.28474903474903479 0.26845976149283474 0.12775069742478531 0.26766456188339016 0.2369414868333492 0.2431657730387474 0.12345424146965574 0.25143678160919547 0.11212496705042714 0.26306192611961537 0.29603547209181019
decision_type=2 2 2 2 2 2 2 2 2 2 2 2 2 2 2 2 2 2 2 2 2 2 2 2 2 2 2 2 2 2
left_child=1 11 -3 28 9 -6 7 -7 -8 13 -11 17 -13 14 -5 16 -4 -1 26 -20 -12 -16 -15 -24 25 -25 27 -19 -2 -30
right_child=3 2 15 4 5 6 8 -9 -10 10 20 12 -14 22 21 -17 -18 18 19 -21 -22 -23 23 24 -26 -27 -28 -29 29 -31
leaf_value=-0.047625000000000028 -0.047625000000000028 -0.061732187569141388 0.091686202253916216 0.13020617709350901 0.00065300324155756451 0.10132306620571725 0.047499999999999966 0.044944340102618337 0.14088489299718876 0.22742589394721985 0.045686317850616033 0.0060953889546272793 -0.00063704558057300822 0.059676407645692625 -0.099800578015928773 0.18367472963903339 0.0048750000000000078 -0.044280004378964337 0.099022821527804922 -0.086900623394814247 -0.0017258446117177602 0.059771618908399077 -0.0014035452492103147 0.092848320381838989 -0.0031261388684880372 0.025956402344934595 -0.045124999999999998 0.046666605402505071 0.050000000000000003 -0.0043865128664407225
leaf_weight=3240 144 243 57 42 129 33 100 36 44 31 33 33 75 58 46 50 642 80 33 31 55 47 620 48 108 58 612 43 176 166
leaf_count=3240 144 243 57 42 129 33 100 36 44 31 33 33 75 58 46 50 642 80 33 31 55 47 620 48 108 58 612 43 176 166
internal_value=1.13171e-05 -0.000507489 0.000717021 0.00136152 0.00182539 0.00346064 0.00528271 0.00923572 0.00333793 0.00133479 0.0047625 -0.000800505 0.00218349 0.000933367 0.00329044 0.00143533 0.001145 -0.000880815 -6.06236e-05 0.00390769 0.00244944 0.00117553 0.00057335 0.000358085 0.00176279 0.00365421 -0.000411004 0.00133468 -5.95468e-05 0.000545191
internal_weight=7113 5139 992 1974 1488 342 213 69 144 1146 119 4147 108 1027 135 749 699 4039 799 64 88 93 892 834 214 106 735 123 486 342
internal_count=7113 5139 992 1974 1488 342 213 69 144 1146 119 4147 108 1027 135 749 699 4039 799 64 88 93 892 834 214 106 735 123 486 342
is_linear=0
shrinkage=0.05


Tree=3
num_leaves=31
num_cat=0
split_feature=0 0 9 8 5 10 8 3 1 3 9 2 5 5 4 9 8 8 2 4 0 2 8 3 0 4 8 9 2 9
split_gain=1.46191 0.72609 0.599474 1.58919 0.620217 0.475362 0.690708 0.823688 0.584323 0.647823 0.418621 0.4133 0.306179 0.866903 0.289028 0.298959 0.321247 0.380742 0.273841 0.25432 0.253451 0.488045 0.460749 0.21049 0.401998 0.201333 0.192108 0.183029 0.182671 0.179735
threshold=0.21883520358383854 0.28815810205505671 0.23090481998697585 0.22783697186950891 0.2809758771929825 1.0000000180025095e-35 0.23560024215722211 0.45687467180115532 0.10559180590339222 0.42957991548595581 0.24096872329909233 0.28509502576049839 0.27970588235294125 0.29603547209181019 23.146700143472028 0.20377481328616356 0.23074206488568769 0.22190569384975148 0.27821312123737657 22.983192090395484 0.19501308900523565 0.26830339103635287 0.25006587973911421 0.41262902613318614 0.22974987103925895 24.054804804804807 0.21078541528971143 0.24238038676335752 0.25292936187573317 0.26649099244139363
decision_type=2 2 2 2 2 2 2 2 2 2 2 2 2 2 2 2 2 2 2 2 2 2 2 2 2 2 2 2 2 2
left_child=10 5 12 -4 -5 23 14 8 -8 -10 -1 -11 -3 -14 -7 -16 17 26 -19 -15 25 22 28 24 -2 -12 -17 -6 -22 -25
right_child=1 2 3 4 27 6 7 -9 9 11 20 -13 13 19 15 16 -18 18 -20 -21 21 -23 -24 29 -26 -27 -28 -29 -30 -31
leaf_value=-0.047600570299428907 -0.026551255881253739 -0.0024894945498142068 0.093790078669183888 0.044856259259917222 0.0873216514581973 -0.00072672280404739275 -0.0082436470031738377 0.010762129468805498 0.036297265059913715 0.20432955266695407 -0.049514111388470228 0.08509864125971231 0.11035540964473008 -0.0047390028457139997 -0.042868749999999969 0.045649058346014966 -0.010057188965474417 0.0066485866959124845 0.083920626863048201 0.044225244077901071 -0.096834585423339808 -0.00095496563614854584 0.052508252408994482 -0.020186339910116077 0.08698052456413756 0.052454337493056058 -0.00084849583914045005 -0.0027340716052195492 0.096835698911235918 0.10295282177913011
leaf_weight=2844 89 119 40 37 43 803 37 160 50 44 364 35 54 180 134 41 40 33 36 107 33 144 49 1245 42 30 82 84 39 75
leaf_count=2844 89 119 40 37 43 803 37 160 50 44 364 35 54 180 134 41 40 33 36 107 33 144 49 1245 42 30 82 84 39 75
internal_value=-8.70804e-05 0.000618944 0.00211128 0.00436098 0.00214546 0.000281983 0.000907421 0.00293884 0.00539521 0.00697308 -0.000814639 0.00976875 0.00110629 0.00186696 0.00033889 0.00150136 0.00258369 0.00343005 0.00637857 0.000762154 0.000320456 0.00151316 0.00384017 -0.000362602 0.00154167 -0.000483543 0.0017379 0.000464845 0.00126028 -0.00055261
internal_weight=7113 3610 664 204 164 2946 1495 326 166 129 3503 79 460 341 1169 366 232 192 69 287 659 265 121 1451 131 394 123 127 72 1320
internal_count=7113 3610 664 204 164 2946 1495 326 166 129 3503 79 460 341 1169 366 232 192 69 287 659 265 121 1451 131 394 123 127 72 1320
is_linear=0
shrinkage=0.05


Tree=4
num_leaves=31
num_cat=0
split_feature=0 6 9 11 5 4 7 9 5 5 0 11 0 8 8 9 9 3 4 11 3 4 4 4 8 9 6 8 9 7
split_gain=1.24786 0.664429 0.663677 0.987906 0.742209 0.483322 0.441792 0.502852 0.451347 0.425256 0.350318 0.52401 1.05705 0.341463 0.406474 0.357078 0.269649 0.23005 0.225233 0.192581 0.291479 0.310554 0.457979 0.175295 0.330869 0.174976 0.176577 0.248067 0.153068 0.155724
threshold=0.21068002932335847 93.552125814352266 0.24191708013721827 35.500000000000007 0.27151675485008825 23.504545454545458 5.5000000000000009 0.20054228932529697 0.2466642946095001 0.22400926402470409 0.27930444410891342 10.500000000000002 0.30537273580140006 0.23625769237218508 0.25291686772329663 0.27588835155592945 0.23189656278526696 0.46019602245694174 24.930633520449081 13.500000000000002 0.45240612101077221 22.80243902439025 22.602631578947371 21.452272727272732 0.21738520853655413 0.24096872329909233 90.998314863092673 0.23590839219962703 0.19786752134883542 7.5000000000000009
decision_type=2 2 2 2 2 2 2 2 2 2 2 2 2 2 2 2 2 2 2 2 2 2 2 2 2 2 2 2 2 2
left_child=18 28 5 13 9 10 7 -7 -9 -5 19 12 -12 -4 -15 17 -13 -16 25 -3 21 22 23 -21 -25 -1 -27 -28 -2 -30
right_child=1 2 3 4 -6 6 -8 8 -10 -11 11 16 -14 14 15 -17 -18 -19 -20 20 -22 -23 -24 24 -26 26 27 -29 29 -31
leaf_value=-0.087863721485028551 -0.047196549893244198 -0.045965575525394292 0.045696242960854179 0.16608559265815695 0.050989075564099512 -0.0019919365605730378 0.039072069537719273 0.0080989122770671607 0.1319372423605866 0.11681085566499574 0.088504199749873655 -0.00203387136222946 -0.0015004815527807113 -0.012720929341014721 0.20583812161651116 -0.0011745176534354947 0.041159219664583559 0.085695091098372977 0.0023000023531195308 -0.03769019946862074 -0.044117563750480433 -0.040399878827841393 0.094364319945267727 -0.072091260985336719 0.087164658168374182 -0.089562685052119395 0.080915770737820775 -0.00015300947737948434 0.00039573605008582648 -0.050502656387158319
leaf_weight=2430 398 309 32 32 52 35 268 34 40 30 55 237 82 140 30 51 34 48 51 97 308 171 50 60 39 168 46 339 1289 158
leaf_count=2430 398 309 32 32 52 35 268 34 40 30 55 237 82 140 30 51 34 48 51 97 308 171 50 60 39 168 46 339 1289 158
internal_value=-0.000122222 0.000448898 0.00102864 0.00283053 0.00677391 0.00061621 0.00220767 0.00487727 0.00718667 0.0104286 0.000198893 0.00143765 0.00394565 0.00131954 0.000727779 0.00274231 0.000159928 0.0048481 -0.000889949 -0.00029082 0.00015496 0.00101555 0.0021498 0.00104569 0.002515 -0.000946547 -0.0001435 0.000446893 -0.000253249 -1.4156e-05
internal_weight=7113 4079 2234 415 114 1819 377 109 74 62 1442 408 137 301 269 129 271 78 3034 1034 725 417 246 196 99 2983 553 385 1845 1447
internal_count=7113 4079 2234 415 114 1819 377 109 74 62 1442 408 137 301 269 129 271 78 3034 1034 725 417 246 196 99 2983 553 385 1845 1447
is_linear=0
shrinkage=0.05


Tree=5
num_leaves=31
num_cat=0
split_feature=0 6 2 3 9 1 9 10 0 0 3 6 0 4 7 9 2 2 4 3 5 3 5 2 6 6 9 4 4 6
split_gain=1.64806 0.58678 0.572055 0.636326 0.586061 0.973229 0.541536 0.497784 0.622778 0.45987 0.646268 0.385018 0.371195 0.337011 0.336911 0.371716 0.346246 0.383608 0.378239 0.562152 0.440072 0.252449 0.245394 0.619009 0.239207 0.465045 0.192117 0.186392 0.1793 0.169674
threshold=0.23470908482618089 93.294043563537244 0.3115240550664008 0.53752468729427261 0.21598359666475153 0.15025193269956436 0.24006835465583973 1.0000000180025095e-35 0.32607849771612257 0.24133220652625295 0.45372017925398717 95.754596776764615 0.30086030517415641 24.423402868318124 7.5000000000000009 0.19049177772582029 0.26830339103635287 0.27665750922424076 23.139211886304913 0.51150749510037619 0.25342723004694839 0.4337182986087999 0.30895721925133696 0.29169648097769835 90.998314863092673 91.450978698040714 0.22979700177608778 24.930633520449081 25.146428571428576 93.602545675267194
decision_type=2 2 2 2 2 2 2 2 2 2 2 2 2 2 2 2 2 2 2 2 2 2 2 2 2 2 2 2 2 2
left_child=6 -2 7 4 12 -6 27 8 29 10 21 13 -4 24 15 -11 -17 -18 22 20 -20 -9 -19 -24 -8 -26 -5 -1 -29 -3
right_child=1 2 3 26 5 -7 11 9 -10 14 -12 -13 -14 -15 -16 16 17 18 19 -21 -22 -23 23 -25 25 -27 -28 28 -30 -31
leaf_value=-0.042942392275053379 -0.0041128789083926705 0.066570862764494462 0.084626900413275405 -0.049713080698120984 0.032029270831582211 0.13195073076080785 -0.08508455079951345 0.058056440991912095 0.07891750735023241 -0.04465372173885488 -0.056056860237943831 0.15536065927263137 -0.0020473710097002828 0.10404087886502561 -0.0088465587305058581 0.077217875355161045 -0.005362283760974371 0.030433158662450235 0.034479381345333973 -0.0079103822765252529 0.093957788678623422 0.058967705709355715 0.11395273405986135 0.0064273416317098125 0.049078906012744283 -0.00047053991249502238 0.089551667151189618 0.0023445226634807056 -0.0017299290231498447 -0.0041690426238247327
leaf_weight=3517 806 48 30 58 42 37 219 31 49 98 37 35 47 69 86 42 91 201 31 34 38 30 31 62 55 479 30 36 54 702
leaf_count=3517 806 48 30 58 42 37 219 31 49 98 37 35 47 69 86 42 91 201 31 34 38 30 31 62 55 479 30 36 54 702
internal_value=-0.000117526 0.000867207 0.00135641 0.00360816 0.00551592 0.00851875 -0.00070459 0.00101334 0.000126876 0.00188438 0.00508081 0.000424827 0.00236539 0.000202918 0.00143916 0.00184102 0.00236347 0.00197955 0.0026495 0.00524519 0.00780714 0.00820161 0.00172543 0.00383511 -0.000105436 0.000465422 0.000202249 -0.000972975 0.00126374 -0.000233021
internal_weight=7125 2661 1855 244 156 79 4464 1611 799 812 98 857 77 822 714 628 530 488 397 103 69 61 294 93 753 534 88 3607 90 750
internal_count=7125 2661 1855 244 156 79 4464 1611 799 812 98 857 77 822 714 628 530 488 397 103 69 61 294 93 753 534 88 3607 90 750
is_linear=0
shrinkage=0.05


Tree=6
num_leaves=31
num_cat=0
split_feature=5 2 11 8 8 6 5 9 11 6 7 10 3 6 1 6 11 3 2 11 6 6 8 6 2 3 2 8 8 6
split_gain=1.23723 0.748366 0.886936 0.484702 1.16007 0.414336 0.540267 0.368639 0.555509 0.275078 0.250387 0.303946 0.448971 1.00421 0.336932 0.289619 0.279851 0.236788 0.234756 0.354858 0.362015 0.219869 0.217884 0.25047 0.281984 0.455165 0.299735 0.225868 0.348006 0.171212
threshold=0.24305019305019307 0.31989847715736047 39.500000000000007 0.22587801309556618 0.21041241881958969 94.914512508067844 0.25143678160919547 0.24006835465583973 52.500000000000007 90.998314863092673 6.5000000000000009 1.0000000180025095e-35 0.47152365306036487 95.821244013321817 0.13485069884059359 95.374143877229457 15.500000000000002 0.44088866131876886 0.29016169471346459 25.500000000000004 94.242307609993802 91.450978698040714 0.21708606098188304 91.725841450512533 0.27646086136161552 0.43543857403891967 0.279086620901844 0.22623669008352743 0.22291536944790372 95.570047346482738
decision_type=2 2 2 2 2 2 2 2 2 2 2 2 2 2 2 2 2 2 2 2 2 2 2 2 2 2 2 2 2 2
left_child=7 5 3 4 -3 21 -7 18 9 -9 11 14 13 17 -8 -14 -16 -13 -1 -20 -21 -2 -23 -24 -25 -26 -27 28 -28 -18
right_child=1 2 -4 -5 -6 6 10 8 -10 -11 -12 12 15 -15 16 -17 29 -19 19 20 -22 22 23 24 25 26 27 -29 -30 -31
leaf_value=-0.041631264523828697 -0.040088329468710771 -0.030005546861410527 0.1320207592966455 -0.0051610710410655456 0.077752989864732225 0.095486642121904816 -0.044152653999461104 -0.044658047538800795 0.13870931136440737 0.018549752225768806 -0.0037350214574399551 -0.046527081925093659 0.039720993646605578 0.089567027780840275 0.0794927254550441 -0.0057771846879412329 0.043625291513829746 0.072135638531315646 -0.040776809924727604 0.0018457948099430564 0.069284355444290069 -0.032373374383717249 0.044884292625446742 -0.034160430244146452 0.090136168415588885 0.13430072607421156 -0.043169062536265408 -0.0048118345336295183 0.077613821851836851 -0.070744826601115599
leaf_weight=3379 306 53 30 74 46 59 151 224 39 637 142 35 30 43 41 102 30 45 260 78 46 580 39 210 66 39 43 225 30 43
leaf_count=3379 306 53 30 74 46 59 151 224 39 637 142 35 30 43 41 102 30 45 260 78 46 580 39 210 66 39 43 225 30 43
internal_value=-0.000152609 0.00075396 0.00365441 0.00224425 0.004515 0.000491816 0.00147992 -0.000631324 0.000277471 9.86222e-06 0.00106637 0.0015739 0.00280274 0.00496371 0.00038534 0.000766919 0.00242609 0.00160494 -0.000848697 0.000322079 0.002512 2.79417e-05 0.000326035 0.000952528 0.000701141 0.00147401 0.000723374 0.000177259 0.00257433 0.000547299
internal_weight=7125 2462 203 173 99 2259 721 4663 900 861 662 520 255 123 265 132 114 80 3763 384 124 1538 1232 652 613 403 337 298 73 73
internal_count=7125 2462 203 173 99 2259 721 4663 900 861 662 520 255 123 265 132 114 80 3763 384 124 1538 1232 652 613 403 337 298 73 73
is_linear=0
shrinkage=0.05


Tree=7
num_leaves=31
num_cat=0
split_feature=5 6 2 3 9 4 9 11 5 6 7 5 6 3 5 1 2 8 5 2 8 3 6 9 2 2 2 4 6 2
split_gain=1.08038 0.63197 0.475777 0.766039 0.926067 0.413303 0.377385 0.406929 0.310303 0.217158 0.208412 0.385565 0.37057 0.542234 0.235788 0.196166 0.326604 0.501255 0.3555 0.191519 0.390927 0.401937 0.189449 0.419958 0.165944 0.189987 0.274421 0.165074 0.145255 0.457896
threshold=0.24305019305019307 94.956485964452796 0.31587465226640493 0.53263600611754436 0.21598359666475153 24.739849624060152 0.24006835465583973 53.500000000000007 0.25362623502207277 90.998314863092673 5.5000000000000009 0.32866927592954992 96.416770935069565 0.48062697892783063 0.36954689146469971 0.12594468028402281 0.28192097253447562 0.21770492543379458 0.28187071144817627 0.30993423816348725 0.22648451815369061 0.54045660567399711 97.56630901013331 0.22498597030248629 0.25932452686449142 0.26073302815721411 0.2602617634849706 22.690065681444995 91.553372178711967 0.2685352735755962
decision_type=2 2 2 2 2 2 2 2 2 2 2 2 2 2 2 2 2 2 2 2 2 2 2 2 2 2 2 2 2 2
left_child=6 5 8 4 -4 15 24 9 27 -8 11 12 13 -10 22 -2 17 -17 -19 -18 21 -21 -12 -24 -1 26 -26 -3 29 -11
right_child=1 2 3 -5 -6 -7 7 -9 10 28 14 -13 -14 -15 -16 16 19 18 -20 20 -22 -23 23 -25 25 -27 -28 -29 -30 -31
leaf_value=-0.079241852570832993 -0.029785067997103745 0.098223158683258788 0.12087115194693923 -0.059586229103684697 0.11629611622216805 0.082500848114852518 -0.042708833035811439 0.13225044400303698 0.074550506072624284 0.050908178087302164 -0.0071630226479384579 -0.047987059844586039 -0.0071065730986946476 0.076934074565909574 0.040625515950854424 -0.0072173268034079448 -0.0057841415954752277 0.054905672533474996 0.090764779241632038 0.071116402507673787 -0.008417510229739333 -0.001651582485411185 0.087720878388403173 -0.051513024428807078 -0.033047102472612083 -0.035281997761727885 0.017922737568183019 0.054968117061167221 0.0017336199378281771 -0.0035840471200383577
leaf_weight=1330 1051 35 34 33 42 62 225 35 60 37 317 47 40 32 48 72 302 30 37 38 56 33 30 33 86 2307 40 30 568 35
leaf_count=1330 1051 35 34 33 42 62 225 35 60 37 317 47 40 32 48 72 302 30 37 38 56 33 30 33 86 2307 40 30 568 35
internal_value=-0.000194708 0.000652458 0.00182673 0.00487727 0.00761039 0.000106125 -0.000642044 0.000277471 0.00132541 6.0625e-05 0.000969574 0.00239722 0.00377444 0.00550538 0.0003683 -4.84554e-05 0.000699474 0.00279643 0.005875 1.51177e-05 0.00163672 0.00407639 -5.2492e-05 0.00242969 -0.000861981 -0.000616063 0.00126772 0.00458333 0.000530423 0.00263014
internal_weight=7125 2462 781 109 76 1681 4663 900 672 865 607 179 132 92 428 1619 568 139 67 429 127 71 380 63 3763 2433 126 65 640 72
internal_count=7125 2462 781 109 76 1681 4663 900 672 865 607 179 132 92 428 1619 568 139 67 429 127 71 380 63 3763 2433 126 65 640 72
is_linear=0
shrinkage=0.05


Tree=8
num_leaves=31
num_cat=0
split_feature=0 9 1 11 9 9 7 10 3 0 3 2 2 11 3 3 7 0 8 11 2 1 2 8 3 2 11 1 5 0
split_gain=1.64772 0.55235 0.45228 0.682811 1.65556 0.379522 0.657209 0.341235 0.439469 0.333202 0.316253 0.314371 0.291999 0.246074 0.235769 0.495815 0.195091 0.222226 0.530429 0.916361 0.796036 0.599322 0.487339 0.490272 0.220629 0.210582 0.246758 0.179063 0.176072 0.170133
threshold=0.22974987103925895 0.24006835465583973 0.15134944905587111 9.5000000000000018 0.23437153547671843 0.24355584000327565 5.5000000000000009 1.0000000180025095e-35 0.41180940461290905 0.32607849771612257 0.51150749510037619 0.31587465226640493 0.31989847715736047 8.5000000000000018 0.43041035598705507 0.44337299005483788 7.5000000000000009 0.27759129741684169 0.2378269970150815 15.500000000000002 0.27888981864694801 0.1046842039454844 0.29468876673733352 0.22351451393311086 0.44595753558017714 0.26830339103635287 23.500000000000004 0.12493621545641199 0.2302494802494803 0.24701489877388086
decision_type=2 2 2 2 2 2 2 2 2 2 2 2 2 2 2 2 2 2 2 2 2 2 2 2 2 2 2 2 2 2
left_child=1 -1 7 -4 12 6 -3 8 -2 11 16 -10 -5 -13 -7 -16 17 18 21 -20 -21 24 23 -19 -9 26 -23 -24 -18 -27
right_child=2 5 3 4 -6 14 -8 10 9 -11 -12 13 -14 -15 15 -17 28 22 19 20 -22 25 27 -25 -26 29 -28 -29 -30 -31
leaf_value=-0.037942274757756085 0.085936265824080885 0.14457086189879137 -0.0068172733682865666 -0.0053905923917256073 0.12365806382208543 -0.0041503927318006107 -0.00051475522678209602 0.049841750985871534 -0.0063561106068866563 0.072046745721454433 -0.0062212356440709054 0.034760212979153916 0.11640248404588099 -0.0030643205876772217 0.10046492959898007 -0.0045838174033846907 0.0017603399598219664 0.10001669841656136 -0.0059467931614374421 0.098646327987505236 0.086771622729324885 0.054375792099025447 0.056416596888767746 0.030095302827647715 0.0092722406700085618 0.0091462053397463761 -0.035176343677791426 -0.043711469393757564 -0.078051506350204747 -0.010165119711818287
leaf_weight=3402 35 41 111 67 33 570 81 30 1175 59 217 32 44 33 46 66 36 59 58 39 43 45 30 37 47 198 41 48 92 310
leaf_count=3402 35 41 111 67 33 570 81 30 1175 59 217 32 44 33 46 66 36 59 58 39 43 45 30 37 47 198 41 48 92 310
internal_value=-0.000117526 -0.00075089 0.000795036 0.00280274 0.00506207 0.000427331 0.00298374 0.000601878 3.67055e-05 -0.000114229 0.0011683 -0.000290087 0.00208482 0.00306818 -3.36735e-05 0.0020531 0.00150853 0.00174696 0.00139594 0.0041844 0.00755422 0.000808781 0.00336572 0.00573196 0.00492949 0.000267228 0.00254023 0.000417723 -0.00032558 -0.000121806
internal_weight=7125 4206 2919 255 144 804 122 2664 1334 1299 1330 1240 111 65 682 112 1113 985 811 140 82 671 174 96 77 594 86 78 128 508
internal_count=7125 4206 2919 255 144 804 122 2664 1334 1299 1330 1240 111 65 682 112 1113 985 811 140 82 671 174 96 77 594 86 78 128 508
is_linear=0
shrinkage=0.05


Tree=9
num_leaves=31
num_cat=0
split_feature=0 6 8 1 6 11 9 9 6 8 9 3 7 9 1 0 0 5 8 3 0 1 1 6 6 5 0 8 0 1
split_gain=1.39526 0.506704 0.514437 0.382401 0.418018 0.403791 0.764316 0.247465 0.265264 0.264151 0.370587 0.213487 0.198915 0.426799 0.498339 0.592988 0.367337 0.416888 0.270903 0.685408 0.483497 0.332835 0.38464 0.241328 0.164125 0.161216 0.144373 0.360005 0.278898 0.163616
threshold=0.22138120676567896 93.282619936501234 0.20335818327525476 0.15134944905587111 93.381291057919697 9.5000000000000018 0.23437153547671843 0.24006835465583973 90.998314863092673 0.23590839219962703 0.24355584000327565 0.52692633739347705 5.5000000000000009 0.23064749502622539 0.11850457806649889 0.2930633520449078 0.27846568792717691 0.30173704702006593 0.21216636832841904 0.47152365306036487 0.23729358548149768 0.12082466558498618 0.12281021431128843 97.493146794550825 94.608113738114113 0.14504441327723239 0.25663247590536703 0.25480712498071095 0.25185876174682148 0.13263882294345533
decision_type=2 2 2 2 2 2 2 2 2 2 2 2 2 2 2 2 2 2 2 2 2 2 2 2 2 2 2 2 2 2
left_child=7 25 -3 4 -4 24 11 -1 -9 10 -10 -7 13 16 -15 -16 -6 -18 19 20 -14 -20 -23 26 -5 -2 28 -28 29 -24
right_child=1 2 3 5 12 6 -8 8 9 -11 -12 -13 18 14 15 -17 17 -19 21 -21 -22 22 23 -25 -26 -27 27 -29 -30 -31
leaf_value=-0.036034209728383094 0.0092345891176980437 -0.0048342496028002642 0.05140646225696819 0.067089457546734829 -0.0050451255742387123 0.10984101901531568 0.11747516063098112 -0.07625445959421713 0.083568190368458611 0.001416092671763585 -0.0044246849300501791 -0.0074340771036619669 0.0064842781252579251 0.12294041331387434 -0.0040609490938172399 0.034902010855434269 0.082837145797248365 -0.0061089126164383563 -0.03687818215859668 -0.0092733583125219499 0.068016306287325273 0.047045710758185463 -0.041318856584336948 0.067052081012512435 -0.02540600204366163 -0.0038719556690048119 -0.0056123958723200548 0.032673377208306001 0.075017148729749752 0.010305596197573465
leaf_weight=2986 31 552 58 30 197 36 33 209 34 423 36 36 34 53 96 31 31 34 343 55 40 41 53 43 39 1187 285 31 35 33
leaf_count=2986 31 552 58 30 197 36 33 209 34 423 36 36 34 53 96 31 31 34 343 55 40 41 53 43 39 1187 285 31 35 33
internal_value=-0.000173658 0.000551049 0.00100068 0.00143855 0.00117838 0.00365143 0.00558962 -0.000849009 -4.266e-06 0.000628544 0.00345071 0.00263014 0.00100801 0.00188939 0.00375691 0.00202735 0.00059696 0.00382576 0.000614187 0.00274231 0.00585333 0.000293643 0.00108908 0.000686072 0.000664287 -0.000268251 0.00032991 -0.000233437 0.00179099 0.000241381
internal_weight=7125 3437 2219 1667 1493 174 105 3688 702 493 70 72 1435 442 180 127 262 65 993 129 74 864 521 480 69 1218 437 316 121 86
internal_count=7125 3437 2219 1667 1493 174 105 3688 702 493 70 72 1435 442 180 127 262 65 993 129 74 864 521 480 69 1218 437 316 121 86
is_linear=0
shrinkage=0.05


Tree=10
num_leaves=31
num_cat=0
split_feature=0 0 5 11 3 4 8 6 5 4 11 1 3 3 6 8 5 8 4 6 5 0 10 8 8 2 8 3 0 5
split_gain=1.55438 0.5402 0.544179 0.617592 1.47107 0.484605 0.476142 0.755744 0.370043 0.340431 1.20993 0.328823 0.508285 0.445731 0.363036 0.212499 0.208884 0.201807 0.184653 0.175569 0.167279 0.280662 0.151875 0.300599 0.189643 0.516757 0.159625 0.140899 0.195269 0.181235
threshold=0.21324123348854893 0.28500734573947112 0.29603547209181019 35.500000000000007 0.52184517497348903 21.895644283121602 0.2447978647384694 94.806967327547838 0.27970588235294125 24.739849624060152 35.500000000000007 0.13688089469071626 0.52692633739347705 0.50870231253894638 94.712953163495811 0.23327954696158029 0.1908263305322129 0.18609382652032383 24.930633520449081 91.578546537045227 0.30816714150047492 0.26474541429475024 1.0000000180025095e-35 0.1915414280720818 0.23625769237218508 0.28509502576049839 0.24015199430115494 0.43431457431457438 0.22463411151567078 0.22832080200501256
decision_type=2 2 2 2 2 2 2 2 2 2 2 2 2 2 2 2 2 2 2 2 2 2 2 2 2 2 2 2 2 2
left_child=18 5 3 8 -5 20 9 16 15 17 -11 -4 13 -13 -15 -3 -8 -7 -1 -18 -2 -22 23 -19 -24 26 -26 28 -25 -30
right_child=1 2 11 4 -6 6 7 -9 -10 10 -12 12 -14 14 -16 -17 19 22 -20 -21 21 -23 24 27 25 -27 -28 -29 29 -31
leaf_value=-0.046636210393214368 -0.010871733098339663 -0.0043514352307737324 -0.0068247547841350778 0.031830307538573979 0.11143321898101891 -0.039676159384797009 0.052303912278471247 0.10732232618401255 0.070276691395077792 -0.033359417207370561 0.080477031434482704 0.011052886549687056 -0.0022940351987140069 0.03604882783160545 0.051119253218069982 0.028710711829348614 0.046850596494178248 0.057799426674128386 0.0095276306269177075 -0.017606450267163669 0.06335477196706242 -0.015317890717596131 0.00574440417320762 -0.032299827139789399 0.0021222222087982968 0.076565554112031781 -0.014518227503937602 -0.035910224848969351 0.042056103464386374 0.088361239543951808
leaf_weight=3153 1038 106 157 43 37 193 32 59 58 61 30 51 177 35 39 37 30 46 61 93 41 66 701 115 32 38 45 516 54 49
leaf_count=3153 1038 106 157 43 37 193 32 59 58 61 30 51 177 35 39 37 30 46 61 93 41 66 701 115 32 38 45 516 54 49
internal_value=-0.000137544 0.000522991 0.00174089 0.00346986 0.0071605 0.000244292 0.000696421 0.00292558 0.00197277 0.000441256 0.00340761 0.000677175 0.00164027 0.00406746 0.00652 0.000593751 0.00107372 0.000288549 -0.000955209 0.000125001 -0.000582459 0.00129167 0.000473389 -2.56068e-05 0.000949818 0.00282328 0.000442309 -0.000273468 0.000789956 0.00236058
internal_weight=7193 3979 740 281 80 3239 2094 214 201 1880 91 459 302 125 74 143 155 1789 3214 123 1145 107 1596 780 816 115 77 734 218 103
internal_count=7193 3979 740 281 80 3239 2094 214 201 1880 91 459 302 125 74 143 155 1789 3214 123 1145 107 1596 780 816 115 77 734 218 103
is_linear=0
shrinkage=0.05


Tree=11
num_leaves=31
num_cat=0
split_feature=3 6 9 11 9 5 9 1 8 6 9 6 3 11 6 10 5 5 6 5 5 1 8 3 5 9 9 5 4 1
split_gain=1.04226 0.492816 0.523402 0.710977 1.00983 0.680212 0.605916 1.35306 0.469714 1.00407 0.399679 0.39197 0.334036 0.805903 0.279864 0.262879 0.248043 0.263576 0.216886 0.210084 0.245657 0.251524 0.265981 0.168655 0.163531 0.17372 0.543354 0.356722 0.158213 0.170562
threshold=0.43663344589956898 93.498561609102794 0.22979700177608778 38.500000000000007 0.23189656278526696 0.32449982449982456 0.24690214422950071 0.1295921775523837 0.23426795406354897 95.32774004152084 0.24006835465583973 95.570047346482738 0.5351732013703846 8.5000000000000018 90.998314863092673 1.0000000180025095e-35 0.24852941176470592 0.25143678160919547 91.53273373156091 0.33137254901960789 0.24305019305019307 0.11594738081476251 0.21949410473557879 0.43772567882888175 0.26705426356589151 0.20886469387862164 0.21538744760394249 0.27561219390304853 24.423402868318124 0.10436777455934503
decision_type=2 2 2 2 2 2 2 2 2 2 2 2 2 2 2 2 2 2 2 2 2 2 2 2 2 2 2 2 2 2
left_child=10 23 8 4 -4 6 7 -5 15 -10 16 14 -6 -14 -12 -3 -1 -18 -16 20 -17 -22 -23 -2 -19 -26 -27 -28 29 -20
right_child=1 2 3 5 12 -7 -8 -9 9 -11 11 -13 13 -15 18 19 17 24 28 -21 21 22 -24 -25 25 26 27 -29 -30 -31
leaf_value=-0.037899810923951269 0.018047873011060707 -0.0032512603986492258 0.088758427809216167 -0.050130236337765748 -0.004313558531814362 -0.002006832584896122 0.096082939572988149 0.082194371604320401 -0.0023594248458562971 0.071046292489677573 -0.070180819918418458 0.069035814526696979 -0.014935276616077971 0.070852365977080681 0.041244574402778511 -3.2419571847994417e-06 0.061788961522532306 -0.076782871066185365 -0.042007179234247377 -0.0061211932100258357 0.084929746707632037 0.037206747257584875 0.075476941593884225 -0.002796539509730708 -0.036385398776594066 0.12503720529529536 0.035153130505846016 -0.04126234464495443 0.072857788727208037 0.018665120391555531
leaf_weight=2853 30 570 37 40 328 40 34 32 47 31 214 48 35 31 60 194 49 177 276 107 39 191 55 1132 121 35 31 128 42 186
leaf_count=2853 30 570 37 40 328 40 34 32 47 31 214 48 35 31 60 194 49 177 276 107 39 191 55 1132 121 35 31 128 42 186
internal_value=-0.000165345 0.000551615 0.00106705 0.00230882 0.00128125 0.00531293 0.00739252 0.00468493 0.000485022 0.00421519 -0.000670456 0.0003156 0.000529115 0.00374627 4.23634e-05 0.000229906 -0.000910455 7.10346e-05 0.00062655 0.000972744 0.00141979 0.0023514 0.00174494 -0.000251933 -0.000279917 0.000403482 0.00132821 7.18764e-05 0.00028515 1.51202e-05
internal_weight=7193 2973 1811 577 431 146 106 72 1234 78 4220 826 394 66 778 1156 3394 541 564 586 479 285 246 1162 492 315 194 159 504 462
internal_count=7193 2973 1811 577 431 146 106 72 1234 78 4220 826 394 66 778 1156 3394 541 564 586 479 285 246 1162 492 315 194 159 504 462
is_linear=0
shrinkage=0.05


Tree=12
num_leaves=31
num_cat=0
split_feature=3 6 8 1 3 3 5 4 4 4 2 3 8 6 2 2 4 11 11 10 3 2 8 6 5 5 6 6 7 4
split_gain=1.02483 0.46269 0.405058 0.508748 0.443306 0.905986 0.842295 0.468701 0.329412 0.420526 1.26787 0.271613 1.05175 0.195001 0.179063 0.171615 0.2753 0.165736 0.238486 0.448318 0.214053 0.349957 0.165207 0.224247 0.182606 0.200726 0.1489 0.155132 0.137789 0.136456
threshold=0.42866653985162645 93.270453151742444 0.20775451797543251 0.14659817743020298 0.55179866838914848 0.51150749510037619 0.29860438069393297 23.028174603174609 22.287301587301588 22.552177858439205 0.27955757744603077 0.44337299005483788 0.23820751340114638 94.499176949034776 0.30129451193967327 0.2694983383702047 19.870833333333337 38.500000000000007 50.500000000000007 1.0000000180025095e-35 0.50514801367503259 0.29608739736376471 0.23305983749809903 95.570047346482738 0.24852941176470592 0.25143678160919547 94.59253684651766 94.353615136785393 6.5000000000000009 23.221280602636536
decision_type=2 2 2 2 2 2 2 2 2 2 2 2 2 2 2 2 2 2 2 2 2 2 2 2 2 2 2 2 2 2
left_child=22 29 -3 8 5 14 -7 -8 15 10 -10 12 13 -11 -5 16 -4 20 19 -19 -13 -22 24 28 -1 -26 27 -17 -24 -2
right_child=1 2 3 4 -6 6 7 -9 9 11 -12 17 -14 -15 -16 26 -18 18 -20 -21 21 -23 23 -25 25 -27 -28 -29 -30 -31
leaf_value=-0.067354134652126071 -0.032680272991619748 -0.0010353210631632419 -0.010284148645940487 -0.028654486455350049 -0.00620342260924929 0.10610256331897611 0.064886334322648065 -0.00038438007054788495 -0.021585778576500361 0.044341882560131635 0.10385565619871047 -0.011994036355210704 0.12636143823798127 -0.045195768733142058 0.056838782795750047 -0.008834178010697245 0.13820676897758083 0.0016689534640459136 -0.0021366753395226758 0.069339838871391557 -0.008637856930023724 0.055080264541371361 -0.00089693865331845794 0.029982397617880227 0.066002047740413156 -0.02174056396123529 -0.0094787610104119877 0.019343643996056467 -0.045879069513354617 0.0036000486243815454
leaf_weight=2447 863 639 31 48 54 40 36 35 46 47 52 247 46 66 30 60 39 63 65 58 39 46 741 58 41 351 253 41 225 386
leaf_count=2447 863 639 31 48 54 40 36 35 46 47 52 247 46 66 30 60 39 63 65 58 39 46 741 58 41 351 253 41 225 386
internal_value=-0.000220947 0.000421797 0.000878244 0.00134234 0.00342418 0.00456053 0.00744197 0.00407639 0.000917918 0.00153028 0.00457576 0.00108333 0.00288438 0.000267545 0.000417723 -0.000202352 0.00204225 0.000526013 0.00171658 0.00302049 -0.000144143 0.00200582 -0.000774973 -0.000230242 -0.000971301 3.05358e-05 -0.000650703 0.000965688 -0.000412615 -0.000338799
internal_weight=7193 3330 2081 1442 243 189 111 71 1199 775 98 677 159 113 78 424 70 518 186 121 332 85 3863 1024 2839 392 354 101 966 1249
internal_count=7193 3330 2081 1442 243 189 111 71 1199 775 98 677 159 113 78 424 70 518 186 121 332 85 3863 1024 2839 392 354 101 966 1249
is_linear=0
shrinkage=0.05


Tree=13
num_leaves=31
num_cat=0
split_feature=0 6 9 11 5 8 8 9 0 5 5 4 8 9 6 11 9 5 7 6 6 1 6 8 10 0 9 8 8 1
split_gain=1.19687 0.640296 0.450348 0.887313 0.957644 0.648904 0.486913 0.379871 0.300231 0.401725 0.610045 0.283633 0.267635 0.266897 0.286171 0.265264 0.23343 0.181376 0.169299 0.162422 0.325342 0.143993 0.249494 0.13696 0.135582 0.2221 0.210553 0.31603 0.396029 0.495302
threshold=0.21068002932335847 93.688154337415568 0.24191708013721827 35.500000000000007 0.27130750605326881 0.24271991118752997 0.2378269970150815 0.2478402418717586 0.27452762923351165 0.29603547209181019 0.27970588235294125 22.139211886304913 0.25291686772329663 0.22979700177608778 95.196541654294251 39.500000000000007 0.23642632992844184 0.24025316455696205 5.5000000000000009 90.998314863092673 91.403337650878385 0.099040732364084019 93.392076823690374 0.26698208540454593 1.0000000180025095e-35 0.23470908482618089 0.23006599270737252 0.20418787981479794 0.21189142831684935 0.12311286453867612
decision_type=2 2 2 2 2 2 2 2 2 2 2 2 2 2 2 2 2 2 2 2 2 2 2 2 2 2 2 2 2 2
left_child=16 23 5 6 7 8 -4 -5 24 10 15 -12 -8 -11 -15 18 -1 -14 -10 -18 -21 -22 -23 -2 -3 -26 27 -27 -29 -30
right_child=1 2 3 4 -6 -7 12 -9 9 13 11 -13 17 14 -16 -17 19 -19 -20 20 21 22 -24 -25 25 26 -28 28 29 -31
leaf_value=-0.063986427919519792 -0.0043038493528110141 -0.0064408190064546142 0.025020131678494414 0.071964261152507356 0.020959939362913876 0.030870286823954957 -0.01849334633342711 0.10317325873684689 0.047015082667387777 -0.0025564764350578095 0.053800242499102861 0.074018602164055008 0.11700449681369361 0.062471842810720483 -0.0097205917581911772 0.069441620983983862 -0.066177517526084847 -0.0025138115474353296 -0.0036216177756916573 0.039134200413323855 -0.039262304152221809 0.041393248910842312 -0.0014916454452716952 0.041895337260715697 -0.023106604426118407 -0.03775755202214591 -0.017952877151385892 0.077956881931426178 -0.017738064560019719 0.051194799475167786
leaf_weight=2357 1899 581 49 32 45 42 126 31 47 278 32 40 55 30 34 38 219 66 93 40 296 55 89 54 177 141 61 30 77 79
leaf_count=2357 1899 581 49 32 45 42 126 31 47 278 32 40 55 30 34 38 219 66 93 40 296 55 89 54 177 141 61 30 77 79
internal_value=-0.000193146 0.000361166 0.000949201 0.00245432 0.00631193 0.000606402 0.0010303 0.0102422 0.000456011 0.00136931 0.00288845 0.00673973 0.000118953 0.000253646 0.00313846 0.00130168 -0.000943407 0.00179099 0.000283689 -0.000140713 0.000374222 -2.26743e-05 0.00126897 -0.00029657 -1.65635e-05 0.000534454 0.00120309 0.00170579 0.00305348 0.00201274
internal_weight=7193 4137 2184 404 108 1780 296 63 1738 592 250 72 247 342 64 178 3056 121 140 699 480 440 144 1953 1146 565 388 327 186 156
internal_count=7193 4137 2184 404 108 1780 296 63 1738 592 250 72 247 342 64 178 3056 121 140 699 480 440 144 1953 1146 565 388 327 186 156
is_linear=0
shrinkage=0.05


Tree=14
num_leaves=31
num_cat=0
split_feature=0 6 8 11 0 2 8 1 3 4 6 6 10 0 2 11 3 1 3 3 8 6 4 0 8 8 6 2 2 3
split_gain=1.2205 0.525561 0.421132 0.715217 0.795957 0.384331 0.456346 0.586956 0.495675 0.388441 0.320076 0.391428 0.302407 0.382429 0.430139 0.686344 0.296924 0.209172 0.186317 0.304792 0.457936 0.315197 0.166509 0.136108 0.181064 0.134132 0.129075 0.119576 0.198109 0.126464
threshold=0.21068002932335847 93.688154337415568 0.24271991118752997 33.500000000000007 0.26058976977861209 0.30993423816348725 0.20775451797543251 0.15025193269956436 0.53263600611754436 24.533908045977018 95.091602147569503 96.701013981566959 1.0000000180025095e-35 0.27930444410891342 0.29252326222594621 15.500000000000002 0.40657953157953164 0.13485069884059359 0.45687467180115532 0.44740059194440879 0.20468502709009626 94.846367221802836 22.359174679487182 0.25758787878787887 0.23479110008881621 0.26698208540454593 96.247772318525747 0.28140559165197748 0.28219776635887223 0.45309971682847899
decision_type=2 2 2 2 2 2 2 2 2 2 2 2 2 2 2 2 2 2 2 2 2 2 2 2 2 2 2 2 2 2
left_child=-1 25 5 10 -5 9 -7 -8 -9 12 -4 17 16 18 15 -15 -3 -12 19 23 -21 -22 -16 24 -14 27 -24 29 -29 -2
right_child=1 2 3 4 -6 6 7 8 -10 -11 11 -13 13 14 22 -17 -18 -19 -20 20 21 -23 26 -25 -26 -27 -28 28 -30 -31
leaf_value=-0.039878633082152282 -0.02763314223676765 0.036710037518531018 -0.012602436365550236 0.08262121673622437 0.017129321872434922 -0.009534103728039112 0.013121937360684129 0.071356108321576114 0.010416876705973799 0.080975343559933632 0.024924181648770798 -0.028228732381227296 -0.0046132302344273624 0.077294615712238196 -0.031384261497696568 0.047447267731853739 -0.0034388084394900939 0.10086025004816875 -0.0083516048222896239 -0.045561014696515724 0.069209946776100914 0.052979545173295034 0.064063320963527334 0.057396160386817718 0.017570819683444591 0.039800570397679917 -0.0076648843897643981 0.025710712006229899 -0.0011216735027678182 0.00042793090683249384
leaf_weight=3056 759 53 111 30 31 78 48 32 31 35 55 33 242 30 47 55 789 30 226 34 32 38 32 31 30 54 31 39 803 298
leaf_count=3056 759 53 111 30 31 78 48 32 31 35 55 33 242 30 47 55 789 30 226 34 32 38 32 31 30 54 31 39 803 298
internal_value=-0.000234847 0.000324917 0.000857667 0.00262887 0.00739516 0.000585226 0.00271842 0.00476339 0.00789844 0.000347305 0.00133261 0.00313446 0.000236387 0.000914356 0.00284439 0.00549419 -0.000430604 0.00491279 0.000316247 0.000954658 0.00327619 0.00556338 0.000765767 0.000149672 -0.000212453 -0.000270981 0.00242969 -0.000341314 0.000103204 -0.000695178
internal_weight=7193 4137 2184 290 61 1894 189 111 63 1705 229 118 1670 828 195 85 842 85 633 407 104 70 110 303 272 1953 63 1899 842 1057
internal_count=7193 4137 2184 290 61 1894 189 111 63 1705 229 118 1670 828 195 85 842 85 633 407 104 70 110 303 272 1953 63 1899 842 1057
is_linear=0
shrinkage=0.05


Tree=15
num_leaves=31
num_cat=0
split_feature=1 9 6 4 9 0 0 1 3 9 9 3 1 1 3 10 6 5 9 2 6 0 3 4 9 3 4 1 1 6
split_gain=1.07745 0.842323 0.671227 0.660153 0.498391 0.488529 0.580704 0.398943 0.390368 0.508776 0.751447 0.604449 0.366639 0.355204 0.728348 0.602845 1.11443 0.339904 0.277764 0.271256 0.257169 0.246989 0.32623 0.323589 0.381703 0.308517 0.203462 0.179063 0.1662 0.164443
threshold=0.13485069884059359 0.24006835465583973 90.998314863092673 21.728219696969699 0.20054228932529697 0.28500734573947112 0.28949557754619498 0.13606349690356404 0.54892840857273162 0.21941523651262071 0.24548305816987753 0.50870231253894638 0.14831898493205406 0.10559180590339222 0.4643706402327093 1.0000000180025095e-35 93.282619936501234 0.19204425711275028 0.27588835155592945 0.28192097253447562 92.233001181894437 0.22341309111472399 0.40822943922836186 24.930633520449081 0.2105843694666589 0.40295085139318892 22.252118644067799 0.12250037703591574 0.15025193269956436 96.873165414617304
decision_type=2 2 2 2 2 2 2 2 2 2 2 2 2 2 2 2 2 2 2 2 2 2 2 2 2 2 2 2 2 2
left_child=1 21 -3 20 -2 7 -7 -6 9 28 11 -11 -13 18 15 17 -17 -15 -5 -18 -4 23 25 29 -25 -23 -10 -19 -8 -1
right_child=4 2 3 13 5 6 8 -9 26 10 -12 12 -14 14 -16 16 19 27 -20 -21 -22 22 -24 24 -26 -27 -28 -29 -30 -31
leaf_value=-0.058793174869436186 -0.0063388994441482618 -0.058121065611266148 0.01156347030216905 0.0010639337054137745 0.11453747608781009 0.072343440742214771 -0.032290500620215649 -0.0016871100967077793 -0.055399127252290584 0.008225453794312259 -0.010222335676583212 0.051877580674782424 0.11598731662707561 0.13040601398311194 -0.015884642427834921 -0.014882904038874829 0.12383293784206822 -0.024637123714287251 0.045697627088560185 0.042409597805606297 -0.014399718188227752 -0.03514213705951013 -0.0048297321285265347 0.01645946499641945 -0.078187665838699905 0.074585208493177374 0.029405888249998114 0.048245405701655718 0.05289130389437649 0.023599214891796321
leaf_weight=2927 230 268 64 260 47 30 44 264 69 32 42 44 40 30 105 36 57 48 38 31 273 41 1879 31 30 40 30 30 46 43
leaf_count=2927 230 268 64 260 47 30 44 264 69 32 42 44 40 30 105 36 57 48 38 31 273 41 1879 31 30 40 30 30 46 43
internal_value=-0.000213075 -0.000448731 0.000717165 0.00132785 0.0013852 0.00205806 0.00326587 0.000588142 0.00267098 0.00372691 0.00542767 0.00748718 0.00969412 0.00227594 0.0033861 0.00494421 0.007312 0.00218349 0.00101338 0.0103146 -0.000460058 -0.00073848 -0.000300865 -0.00102127 0.00255645 0.00278659 1.50014e-05 0.000417723 0.000714287 -0.00109559
internal_weight=7149 6231 1240 972 918 688 377 311 347 248 158 116 84 635 337 232 124 108 298 88 337 4991 1960 3031 61 81 99 78 90 2970
internal_count=7149 6231 1240 972 918 688 377 311 347 248 158 116 84 635 337 232 124 108 298 88 337 4991 1960 3031 61 81 99 78 90 2970
is_linear=0
shrinkage=0.05


Tree=16
num_leaves=31
num_cat=0
split_feature=1 9 0 0 9 11 6 1 10 1 9 9 0 4 4 5 8 11 6 6 4 4 6 9 1 9 5 8 2 9
split_gain=1.22129 0.525669 0.538036 0.557136 0.510538 0.552477 0.989625 0.488777 0.58488 0.398943 0.38128 1.1698 0.235651 0.228253 0.226237 0.300668 0.349166 0.503903 0.216908 0.473288 0.191385 0.185005 0.161589 0.192395 0.256568 0.160519 0.148752 0.200693 0.262054 0.143093
threshold=0.13485069884059359 0.20054228932529697 0.28500734573947112 0.28949557754619498 0.24006835465583973 35.500000000000007 93.366073135994526 0.11417616641203433 1.0000000180025095e-35 0.13606349690356404 0.24524836163762617 0.2387472562267583 0.21068002932335847 23.691391941391945 23.848076923076928 0.31296641791044782 0.21757755759376302 8.5000000000000018 90.998314863092673 91.53273373156091 22.576014381099132 24.930633520449081 94.455145701553178 0.27406810492351513 0.10214470085772502 0.20886469387862164 0.2312382739212008 0.2060431288378565 0.26930999127913835 0.17486387018423807
decision_type=2 2 2 2 2 2 2 2 2 2 2 2 2 2 2 2 2 2 2 2 2 2 2 2 2 2 2 2 2 2
left_child=4 29 9 -4 12 18 13 -8 -9 -3 11 14 21 -7 15 -5 -17 -18 -6 20 -20 26 23 -21 -25 -11 -1 28 -28 -2
right_child=1 2 3 10 5 6 7 8 -10 25 -12 -13 -14 -15 -16 16 17 -19 19 22 -22 -23 -24 24 -26 -27 27 -29 -30 -31
leaf_value=-0.058100682879329568 0.040385480710714877 0.10881060228341961 0.068726268705104052 -0.0055228230711636198 -0.05587507222497097 -0.038174965689726809 0.038742712642736495 0.070102607662354474 0.066277006410019393 0.0063665324656419055 -0.010692220683209873 0.087326045036479519 -0.0060674923473787515 0.011842197973025471 0.097400945540164763 -0.012591939165445695 0.015047907391936489 0.039997878432193983 0.078225824124750806 -0.0013158770694814924 0.0016358959274802678 0.013292929356088832 -0.0091460191269219851 0.047521685568911211 0.030448171869010818 -0.0025392489916389385 -0.0093267172100941313 -0.059874110710543542 0.037867865560530789 -0.012117863367205408
leaf_weight=2061 43 47 30 91 226 106 45 36 33 32 63 31 2551 30 40 42 30 50 36 391 34 39 216 33 54 232 77 224 39 187
leaf_count=2061 43 47 30 91 226 106 45 36 33 32 63 31 2551 30 40 42 30 50 36 391 34 39 216 33 54 232 77 224 39 187
internal_value=-0.000262027 0.00143961 0.00213063 0.00339815 -0.000512916 0.000394844 0.00249004 0.00590435 0.00852143 0.000588142 0.00281466 0.00359298 -0.00073848 -0.000394159 0.00244291 0.00177804 0.00339025 0.00530864 -0.000136225 0.000266668 0.00415493 -0.00108972 -0.000130934 0.000382047 0.00249432 -0.000173583 -0.0011455 -0.000175952 0.00150427 -0.000627704
internal_weight=7149 918 688 377 6231 1240 250 114 69 311 347 284 4991 136 253 213 122 80 990 764 70 2440 694 478 87 264 2401 340 116 230
internal_count=7149 918 688 377 6231 1240 250 114 69 311 347 284 4991 136 253 213 122 80 990 764 70 2440 694 478 87 264 2401 340 116 230
is_linear=0
shrinkage=0.05


Tree=17
num_leaves=31
num_cat=0
split_feature=0 1 9 8 9 2 2 8 3 9 3 6 2 6 0 2 2 6 0 9 2 3 5 6 0 9 9 3 8 1
split_gain=1.12368 0.441942 0.459437 0.617548 1.12603 0.880484 0.515389 0.393714 0.448439 0.351477 0.297239 0.290306 0.282284 0.270656 0.281618 0.263562 0.243441 0.216316 0.192182 0.206512 0.184483 0.31501 0.165045 0.22309 0.235139 0.140692 0.21157 0.272961 0.26372 0.234195
threshold=0.24898499607183869 0.13485069884059359 0.20054228932529697 0.227068883568912 0.22360416589601403 0.3019261950446705 0.30993423816348725 0.25981876924630226 0.46514866878279465 0.24006835465583973 0.45121178398095774 90.998314863092673 0.29016169471346459 95.11549492054381 0.2947038442501238 0.2685352735755962 0.28313361789519947 95.959778079423756 0.28815810205505671 0.22513407083705947 0.31362210645831978 0.53049369166120453 0.24575783721599082 95.591209762201501 0.18624531117832802 0.20710879019304787 0.18742469580810453 0.46863535650721011 0.19315367378228568 0.11773872480243673
decision_type=2 2 2 2 2 2 2 2 2 2 2 2 2 2 2 2 2 2 2 2 2 2 2 2 2 2 2 2 2 2
left_child=9 7 -3 4 6 -6 13 10 -9 22 12 -11 15 -4 -15 -2 -5 -13 -18 -20 21 -21 -1 24 -24 26 -12 -28 -29 -30
right_child=1 2 3 16 5 -7 -8 8 -10 11 25 17 -14 14 -16 -17 18 -19 19 20 -22 -23 23 -25 -26 -27 27 28 29 -31
leaf_value=-0.032960370146436255 0.061947048419621745 -0.0056924709004375221 -0.010164556752211505 0.067524218549747703 0.064274329007819417 0.053039218424331229 0.067025699093001934 0.13482491708470185 0.0034548599202273906 -0.05225607383167457 -0.035994376140931907 0.010486048248826011 0.070069101152602273 0.059570213231472151 -0.05122887496992358 -0.016405104023582941 -0.011864376892367755 0.11945742246951699 0.0486610183992408 -0.007333724084544694 -0.0062559189242196835 0.091401938187897588 0.026264827514810032 0.038373703958599618 -0.01903352030619148 -0.018381651254991402 -0.031521008481118683 0.044377391803466261 0.086966784235190553 -0.00047386975447593466
leaf_weight=3317 33 192 72 30 31 35 57 30 49 255 102 737 58 42 41 145 95 32 30 50 65 34 43 59 736 584 60 30 30 75
leaf_count=3317 33 192 72 30 31 35 57 30 49 255 102 737 58 42 41 145 95 32 30 50 65 34 43 59 736 584 60 30 30 75
internal_value=-0.000283006 0.000733132 0.00166323 0.00236192 0.00406093 0.00971642 0.00226291 0.000130327 0.00351875 -0.000669593 -0.000112253 0.000160001 0.00145992 0.000753207 0.00268453 0.000463689 0.000800001 0.000644807 0.000323638 0.00128611 0.000510001 0.00204706 -0.000874036 -0.000246721 -0.000472434 -0.000534579 0.000350673 0.00131378 0.00255515 0.00134434
internal_weight=7149 1970 774 582 278 66 212 1196 79 5179 1117 1024 236 155 83 178 304 769 274 179 149 84 4155 838 779 881 297 195 135 105
internal_count=7149 1970 774 582 278 66 212 1196 79 5179 1117 1024 236 155 83 178 304 769 274 179 149 84 4155 838 779 881 297 195 135 105
is_linear=0
shrinkage=0.05


Tree=18
num_leaves=31
num_cat=0
split_feature=3 6 11 9 5 1 9 7 4 6 3 8 9 9 3 8 4 11 5 6 9 1 4 1 1 8 1 3 9 3
split_gain=0.95954 0.522986 0.403678 0.851592 1.05543 0.865204 0.49861 0.307527 0.235474 0.232539 0.27197 0.362733 0.32672 0.531601 0.21752 0.272802 0.265763 0.178853 0.163565 0.217266 0.199048 0.180151 0.151613 0.204731 0.413756 0.222283 0.14278 0.170223 0.228087 0.142454
threshold=0.42957991548595581 93.270453151742444 38.500000000000007 0.24548305816987753 0.27005577005577014 0.14545200751230905 0.21941523651262071 5.5000000000000009 20.016666666666669 96.701013981566959 0.48062697892783063 0.24186120291734653 0.21634590687193456 0.19638338001750918 0.44942007901672509 0.2378269970150815 20.803846153846155 41.500000000000007 0.24575783721599082 96.804619077489107 0.27588835155592945 0.099761260461180029 22.100724637681164 0.09536727120317591 0.090741378870255532 0.25144990375213949 0.15025193269956436 0.55179866838914848 0.21805704064657741 0.45462172056131794
decision_type=2 2 2 2 2 2 2 2 2 2 2 2 2 2 2 2 2 2 2 2 2 2 2 2 2 2 2 2 2 2
left_child=18 22 7 5 -5 17 -7 8 -3 10 11 -10 13 -12 15 16 -9 29 19 20 -1 -22 -2 24 -24 -25 -16 28 -28 -4
right_child=1 2 3 4 -6 6 -8 14 9 -11 12 -13 -14 -15 26 -17 -18 -19 -20 -21 21 -23 23 25 -26 -27 27 -29 -30 -31
leaf_value=-0.03112849415761719 -0.043643654967483819 -0.028549941208932308 0.036046765906789777 0.081176649989925576 -0.012222066483740857 0.036042024681521088 0.073836436071280778 0.051845982542029746 0.0011923642065669389 -0.057345611204518199 0.018358077799572665 0.16426566290382738 0.016193898795590661 0.065487445402484454 -0.0079825034593016316 0.093528449959304455 -0.001934263598697767 -0.0064679058608975428 -0.00051804058511636529 0.040268846165692151 0.035117990115901679 -0.010141736850127911 -0.083171382805089206 -0.0093658402063667538 0.034682947847048839 0.063592039794183361 -0.024923810699326972 -0.021832339259604677 0.067782491006587439 0.012713950329141112
leaf_weight=3151 463 56 30 38 30 52 39 33 182 43 37 32 64 30 722 48 147 303 582 32 53 34 36 666 40 42 43 43 48 30
leaf_count=3151 463 56 30 38 30 52 39 33 182 43 37 32 64 30 722 48 147 303 582 32 53 34 36 666 40 42 43 43 48 30
internal_value=-0.000276013 0.000350062 0.000841055 0.00204015 0.00721739 0.00125055 0.00558152 0.000430348 0.00153708 0.00197429 0.00240607 0.00129768 0.00419318 0.0066103 -2.39617e-05 0.00134498 0.00044199 0.000152474 -0.000811834 -0.00094925 -0.000990119 0.00135796 -0.00045713 -3.31196e-05 0.00241559 -0.000299011 -0.00038973 0.00110371 0.00232065 0.00262295
internal_weight=7149 3297 2050 522 68 454 91 1528 444 388 345 214 131 67 1084 228 180 363 3852 3270 3238 87 1247 784 76 708 856 134 91 60
internal_count=7149 3297 2050 522 68 454 91 1528 444 388 345 214 131 67 1084 228 180 363 3852 3270 3238 87 1247 784 76 708 856 134 91 60
is_linear=0
shrinkage=0.05


Tree=19
num_leaves=31
num_cat=0
split_feature=0 2 3 8 9 9 11 3 0 8 0 9 3 0 2 8 9 0 2 11 5 8 4 9 5 5 3 0 9 4
split_gain=0.88623 0.445002 0.725752 0.43513 0.989115 0.291212 0.39691 0.912555 0.307919 0.278694 0.665618 0.19515 0.180654 0.179409 0.289425 0.233768 0.386148 0.265162 0.201593 0.21343 0.191735 0.143142 0.126355 0.146429 0.134406 0.186162 0.312766 0.11361 0.124175 0.117674
threshold=0.24839055052842443 0.32374343661068589 0.54045660567399711 0.22865983216541227 0.2148257489851213 0.24006835465583973 36.500000000000007 0.41940896297899982 0.23019305344235449 0.25144990375213949 0.25912110340631067 0.18541095526126208 0.43167433266501559 0.27759129741684169 0.30070057551370299 0.23537979160772629 0.23090481998697585 0.28004723026566863 0.29431395293053353 10.500000000000002 0.2573593073593074 0.26852800157798112 24.930633520449081 0.20829612576622367 0.24575783721599082 0.25143678160919547 0.41383167476664356 0.22730649736593275 0.27406810492351513 19.546920821114373
decision_type=2 2 2 2 2 2 2 2 2 2 2 2 2 2 2 2 2 2 2 2 2 2 2 2 2 2 2 2 2 2
left_child=5 9 3 4 -3 22 27 -8 -9 11 -11 -2 -13 -14 15 16 17 -15 19 -19 -16 -12 24 -24 -1 26 -26 28 29 -7
right_child=1 2 -4 -5 -6 6 7 8 -10 10 21 12 13 14 20 -17 -18 18 -20 -21 -22 -23 23 -25 25 -27 -28 -29 -30 -31
leaf_value=-0.034991108268785175 -0.012218183074842143 0.044286522864686234 -0.052342936501676519 0.037149472725560594 0.11000353855084084 0.01047575512841601 -0.01273260162437987 0.080693877069078102 0.046560559490953016 0.15572712403952602 0.077758905113022317 0.065688177150072358 -0.0010819832995176669 0.11301300854268499 0.048740831621732442 -0.018324271168057023 0.024638546961752647 0.0172129764318012 0.050570783461048763 -0.010586970099595326 -0.0123845445983165 -0.002468333446595505 0.015787805135307097 -0.00066549166132547771 0.071104522690896524 -0.018792060486386868 -0.054183648686823196 -0.026396911462622016 0.03380966692053862 -0.0024335353395267627
leaf_weight=3244 195 37 72 36 30 39 112 34 40 34 52 51 790 34 51 71 50 41 59 138 209 47 42 59 48 679 62 160 118 515
leaf_count=3244 195 37 72 36 30 39 112 34 40 34 52 51 790 34 51 71 50 41 59 138 209 47 42 59 48 679 62 160 118 515
internal_value=-0.000241048 0.000652904 0.00305398 0.00572596 0.00808088 -0.000587617 0.000169776 0.00225134 0.00652 0.000420736 0.00261567 0.000246451 0.000440804 0.00033622 0.000948778 0.0018033 0.00237461 0.00161905 0.00101674 0.000175001 -0.000344826 0.000515001 -0.000774122 0.000965688 -0.000817921 -0.000232277 0.00166667 -0.000297718 -1.18856e-05 -0.000326125
internal_weight=7149 1997 175 103 67 5152 1018 186 74 1822 133 1689 1494 1443 653 393 322 272 238 179 260 99 4134 101 4033 789 110 832 672 554
internal_count=7149 1997 175 103 67 5152 1018 186 74 1822 133 1689 1494 1443 653 393 322 272 238 179 260 99 4134 101 4033 789 110 832 672 554
is_linear=0
shrinkage=0.05


Tree=20
num_leaves=31
num_cat=0
split_feature=5 9 11 2 2 9 9 5 3 4 4 6 10 6 8 6 2 2 6 2 5 8 5 9 4 8 5 4 10 11
split_gain=0.643211 0.384699 0.46596 0.315129 0.451302 0.289574 0.369133 0.517382 0.576031 0.259872 0.74883 0.314648 0.24596 0.430124 0.34272 0.242768 0.294773 0.425579 0.422379 0.239321 0.278424 0.236685 0.235304 0.253405 0.187306 0.15608 0.153607 0.136671 0.136286 0.22603
threshold=0.23971830985915496 0.24049135952206244 48.500000000000007 0.28800216866867501 0.28895042534913601 0.1955595794980132 0.2085624417907084 0.33793300342596122 0.48867908407382094 22.084523809523812 22.540833333333335 96.96184868997419 1.0000000180025095e-35 94.480109696340961 0.23560024215722211 90.998314863092673 0.27015750327497146 0.26483687858903454 91.553372178711967 0.26830339103635287 0.26705426356589151 0.24044692054566458 0.26172161172161179 0.22979700177608778 24.504098360655743 0.25144990375213949 0.26057176891006556 25.080863121185704 1.0000000180025095e-35 12.500000000000002
decision_type=2 2 2 2 2 2 2 2 2 2 2 2 2 2 2 2 2 2 2 2 2 2 2 2 2 2 2 2 2 2
left_child=1 27 15 12 -5 -6 7 8 -7 -8 -11 22 -2 25 19 -3 17 18 -17 20 -15 -19 23 -12 -24 -14 -21 -1 29 -20
right_child=3 2 -4 4 5 6 9 -9 -10 10 11 -13 13 14 -16 16 -18 21 28 26 -22 -23 24 -25 -26 -27 -28 -29 -30 -31
leaf_value=-0.027512392582102582 -0.033198719158179311 -0.027142781223482577 0.072612313334477471 0.060507372182653209 -0.021122713893688534 -0.0029008463122673989 -0.001322892852729589 -0.0020653139634179969 0.067382019935403034 0.057503781571393686 -0.053925230370568226 0.097292899872469626 -0.01457910113758161 -0.017159429299585006 0.05908608145664395 0.036876574302451191 -0.0068959243984042483 0.081331543699093678 0.053680983258018171 0.097589775901862408 0.046572503852912367 0.043999340597819042 -0.0053015464236616308 0.058455402553174413 0.048377892241028592 0.069636244995073579 -0.0046795489332683857 0.006331739317014415 -0.012148062061573246 -0.0064360385033508487
leaf_weight=3639 728 205 56 38 227 39 334 35 51 51 34 37 463 30 46 34 266 30 49 31 36 39 259 32 30 34 120 44 109 74
leaf_count=3639 728 205 56 38 227 39 334 35 51 51 34 37 463 30 46 34 266 30 49 31 36 39 259 32 30 34 120 44 109 74
internal_value=-0.000291625 -0.00065277 0.0002978 0.00032662 0.000941354 0.000757966 0.00115947 0.00367064 0.00565934 0.000751287 0.00154392 0.000793895 -0.000155808 0.000473063 0.00210417 -1.1151e-05 0.000495849 0.00148066 0.000565544 0.00125918 0.00374627 0.00495 0.000330058 0.003 -0.00028793 -0.000392569 0.000154607 -0.00087527 -0.000206007 0.000931453
internal_weight=7200 4545 862 2655 1167 1129 902 125 90 777 443 392 1488 760 263 806 601 335 266 217 66 69 355 66 289 497 151 3683 232 123
internal_count=7200 4545 862 2655 1167 1129 902 125 90 777 443 392 1488 760 263 806 601 335 266 217 66 69 355 66 289 497 151 3683 232 123
is_linear=0
shrinkage=0.05


Tree=21
num_leaves=31
num_cat=0
split_feature=2 11 9 1 1 9 6 2 2 6 1 11 11 4 2 5 9 5 4 4 6 5 11 2 8 3 4 6 11 6
split_gain=0.5523 0.485099 0.674412 0.592541 0.629357 0.293228 0.348564 0.478778 1.10127 0.286802 0.184779 0.208416 0.430941 0.180268 0.313422 0.150326 0.199398 0.145966 0.173925 0.286685 0.317356 0.945811 0.351202 0.180926 0.130386 0.244346 0.388716 0.136181 0.182117 0.126344
threshold=0.28477087430749454 43.500000000000007 0.22453601187547159 0.12393065726383222 0.14317048210964087 0.20054228932529697 95.694935237153388 0.2694983383702047 0.26285211911641626 96.758608414260053 0.12368623921695847 14.500000000000002 21.500000000000004 24.403389830508477 0.27053620325457678 0.25439137134052392 0.22158764742719969 0.18379075768238332 22.084523809523812 22.730249480249483 95.091602147569503 0.29758481886141469 17.500000000000004 0.29556612584926417 0.20876373794772488 0.44531910506237765 23.640754716981135 95.672363052211992 20.500000000000004 90.522577830086945
decision_type=2 2 2 2 2 2 2 2 2 2 2 2 2 2 2 2 2 2 2 2 2 2 2 2 2 2 2 2 2 2
left_child=5 17 9 -4 -5 -1 10 8 -8 -3 13 -12 -13 29 -15 -14 -17 -2 -19 20 22 -22 -20 -24 -21 26 -26 -27 -29 -7
right_child=1 2 3 4 -6 6 7 -9 -10 -11 11 12 15 14 -16 16 -18 18 19 24 21 -23 23 -25 25 27 -28 28 -30 -31
leaf_value=-0.038933675422474903 -0.037597779668584186 -0.0022923733797381609 0.044540488090481112 -0.055713443736210871 0.07117805763671671 -0.048440684811032635 -0.015514123694268682 -0.0032992216963724759 0.10602536346121416 0.088379820050480132 -0.035969989652430367 0.073707029136063584 -0.031816033426648002 0.086673702046286258 -0.0040399350421644045 0.076807342782724775 -0.019844543974457788 -0.0027234370098510913 -0.019226838408045618 -0.0029117951634667558 0.088978028631727366 -0.085874880820529617 0.025431320894831539 0.066399327825205842 -0.0061883210667717028 -0.0031444969707558538 0.060450689264896773 0.051113472045518193 -0.0077207284891201286 -0.0042222953900641763
leaf_weight=1318 182 142 30 36 30 586 76 127 50 31 87 61 110 52 132 44 50 712 92 214 37 30 35 30 43 250 44 31 61 2477
leaf_count=1318 182 142 30 36 30 586 76 127 50 31 87 61 110 52 132 44 50 712 92 214 37 30 35 30 43 250 44 31 61 2477
internal_value=-0.000277738 0.000420976 0.00239445 0.00573196 0.003 -0.000552116 -0.000331688 0.00145866 0.00362992 0.000520116 -0.000457915 0.000628897 0.00132519 -0.000575891 0.000940542 0.000214636 0.00167369 0.000118333 0.000273103 0.000748273 0.00228445 0.00513971 0.00104114 0.00382576 0.000210405 0.000712792 0.0030625 0.000107873 0.00174194 -0.000667264
internal_weight=7200 2030 269 96 66 5170 3852 253 126 173 3599 352 265 3247 184 204 94 1761 1579 867 224 67 157 65 643 429 87 342 92 3063
internal_count=7200 2030 269 96 66 5170 3852 253 126 173 3599 352 265 3247 184 204 94 1761 1579 867 224 67 157 65 643 429 87 342 92 3063
is_linear=0
shrinkage=0.05


Tree=22
num_leaves=31
num_cat=0
split_feature=0 9 8 4 9 11 4 4 8 9 9 11 6 9 2 6 8 0 6 6 3 3 0 0 8 4 6 6 3 4
split_gain=0.604693 0.2685 0.242209 0.403791 0.491246 0.261077 0.223823 0.297243 0.330825 0.323987 0.219883 0.389084 1.11872 0.228253 0.196901 0.361766 0.25874 0.256108 0.30403 0.295223 0.293805 0.173804 0.250581 0.253763 0.150719 0.265235 0.108953 0.170956 0.304562 0.146925
threshold=0.24898499607183869 0.1972025571460598 0.21298897477145215 20.506097560975615 0.21729663890443432 44.500000000000007 20.493589743589748 20.660256410256412 0.2192343010524829 0.20965133388778712 0.24006835465583973 36.500000000000007 93.688154337415568 0.24391185247244215 0.30436728815538522 91.666370867431809 0.26263252884893984 0.2930633520449078 96.089283457452737 95.821244013321817 0.46863535650721011 0.40013386880856766 0.20552269366397455 0.21324123348854893 0.24596970578541016 22.480740740740746 90.998314863092673 93.328515147688947 0.36049006886914864 22.480740740740746
decision_type=2 2 2 2 2 2 2 2 2 2 2 2 2 2 2 2 2 2 2 2 2 2 2 2 2 2 2 2 2 2
left_child=10 -2 3 -3 5 -5 -4 -8 -9 -10 24 21 13 -13 15 -11 17 19 -19 -17 -21 22 26 -24 -1 -26 -12 28 -28 -30
right_child=1 2 6 4 -6 -7 7 8 9 14 11 12 -14 -15 -16 16 -18 18 -20 20 -22 -23 23 -25 25 -27 27 -29 29 -31
leaf_value=-0.024704968312463896 -0.0091308690724470239 0.045001332707377849 -0.0076081755313730931 -0.0019791417200880463 0.056674536637694374 0.061275412787440864 0.070678515581193646 -0.0091127229955211952 0.070256436780916684 0.040447404230435371 -0.046882655055811219 0.029726866901425859 0.068303343801786917 -0.048339657488972246 -0.007878097971789547 -0.0043896574680413695 0.094862076384018001 0.058645251940534805 0.003849016522604904 0.047304318246259601 -0.0026927005984517952 -0.013154733016137211 0.059554948813297107 -0.036020435569833753 -0.046570913849946854 0.018997295525908023 -0.001308823310656749 -0.014247320643474788 0.016907003350794089 0.047813364097502808
leaf_weight=4164 420 53 249 174 37 50 37 227 33 30 110 30 58 106 167 290 50 37 50 30 35 403 31 32 32 30 65 109 31 30
leaf_count=4164 420 53 249 174 37 50 37 227 33 30 110 30 58 106 167 290 50 37 50 30 35 403 31 32 32 30 65 109 31 30
internal_value=-0.000291625 0.000455078 0.000759034 0.00199683 0.00117748 0.000284446 0.000442963 0.000781156 0.000606844 0.00113002 -0.000572724 9.19497e-05 0.00209744 -0.000394159 0.00089348 0.00137094 0.00103854 0.000647857 0.0030625 4.91587e-05 0.00306818 -0.000389777 0.00033741 0.00321094 -0.000730777 0.00169841 -0.000195085 0.000413137 0.00166142 0.00416936
internal_weight=7200 1969 1549 314 261 224 1235 986 949 722 5231 1005 194 136 689 522 492 442 87 355 65 811 408 63 4226 62 345 235 126 61
internal_count=7200 1969 1549 314 261 224 1235 986 949 722 5231 1005 194 136 689 522 492 442 87 355 65 811 408 63 4226 62 345 235 126 61
is_linear=0
shrinkage=0.05


Tree=23
num_leaves=31
num_cat=0
split_feature=0 9 4 1 2 4 2 10 1 9 11 8 0 0 8 4 9 9 8 4 4 1 0 11 2 2 4 2 2 9
split_gain=0.405444 0.274743 0.276348 0.572645 0.603306 0.327228 0.604858 0.510684 0.306622 0.47835 0.304328 0.410603 0.272699 0.266952 0.210287 0.230273 0.277378 0.197291 0.188979 0.236177 0.253091 0.212657 0.187648 0.169623 0.209469 0.156285 0.181528 0.156035 0.140045 0.139198
threshold=0.22936702785520466 0.20054228932529697 22.422649572649576 0.15025193269956436 0.32374343661068589 22.552177858439205 0.279086620901844 1.0000000180025095e-35 0.11031846717000064 0.23090481998697585 17.500000000000004 0.24271991118752997 0.2424441002422654 0.25112871993477381 0.20028975702203025 23.920317460317467 0.25623178122123352 0.18642591389594285 0.23426795406354897 24.739849624060152 24.131481481481483 0.097186536081567534 0.26390925382860869 29.500000000000004 0.29169648097769835 0.27110821003771401 17.873015873015877 0.26964537537242234 0.26261145042581197 0.24355584000327565
decision_type=2 2 2 2 2 2 2 2 2 2 2 2 2 2 2 2 2 2 2 2 2 2 2 2 2 2 2 2 2 2
left_child=14 28 29 5 -5 6 -4 -7 9 -9 -10 12 -12 -14 -1 17 18 -16 19 20 27 -21 -15 -24 -25 26 -19 -17 -2 -3
right_child=1 2 3 4 -6 7 -8 8 10 -11 11 -13 13 22 15 16 -18 25 -20 21 -22 -23 23 24 -26 -27 -28 -29 -30 -31
leaf_value=-0.057358676388365282 0.014183446534325617 0.0028669046076448502 -0.041828274023799558 0.034065805068617595 0.093186204204973255 -0.0034435622694188547 0.088512059601318818 0.066502820869011783 -0.017101868419907702 -0.033265939929874012 -0.030630328563402216 0.041816893328836258 0.043279193734481171 -0.0060597054683161041 0.012195873778977184 0.023077175799357016 0.058977414484895054 0.013342420400517797 -0.0057439810807161486 0.047292783428715221 -0.024505347117892217 0.0041090539254283248 0.043693428963115552 0.051756343695072843 -0.045739092435174739 -0.018767777796740819 -0.0065120619572057725 -0.0021984165542228429 -0.017143995306640018 -0.014356821108438569
leaf_weight=894 40 825 31 51 34 499 43 41 92 33 77 45 32 47 30 40 41 30 116 41 173 30 38 39 43 687 2084 33 726 265
leaf_count=894 40 825 31 51 34 499 43 41 92 33 77 45 32 47 30 40 41 30 116 41 173 30 38 39 43 687 2084 33 726 265
internal_value=-0.000277738 0.000166057 0.000446111 0.000988221 0.00491279 0.000669181 0.00385333 0.000426547 0.00157685 0.00452 0.00103986 0.00176553 0.00103249 0.0020075 -0.00059488 -0.000410616 0.000608422 -0.00058139 0.000231568 0.000863209 0.000125507 0.00338195 0.0011875 0.00223141 0.000927712 -0.000625088 -0.000411819 0.00257433 -0.000650585 -0.000123738
internal_weight=7200 3001 2235 1145 85 1060 74 986 487 74 413 321 276 199 4199 3305 474 2831 433 317 246 71 167 120 82 2801 2114 73 766 1090
internal_count=7200 3001 2235 1145 85 1060 74 986 487 74 413 321 276 199 4199 3305 474 2831 433 317 246 71 167 120 82 2801 2114 73 766 1090
is_linear=0
shrinkage=0.05


Tree=24
num_leaves=31
num_cat=0
split_feature=6 11 8 3 8 6 8 6 6 6 1 10 7 2 8 4 11 0 3 6 11 1 8 10 11 11 2 4 4 2
split_gain=0.487132 0.369769 0.799454 0.40376 0.253251 0.235251 0.282674 0.265986 0.217024 0.201751 0.29723 0.192356 0.176434 0.167834 0.344121 0.163694 0.337366 0.162353 0.307524 0.327799 0.265081 0.324222 0.412171 0.15878 0.233069 0.236667 0.294277 0.158518 0.369473 0.155675
threshold=95.549622789475279 35.500000000000007 0.23060167098745357 0.48152698152698153 0.21216636832841904 90.998314863092673 0.20028975702203025 91.084144048594666 96.701013981566959 96.247772318525747 0.13485069884059359 1.0000000180025095e-35 14.500000000000002 0.27840750782064655 0.20166133386391719 24.803225806451618 29.500000000000004 0.22730649736593275 0.45418256997455475 92.101205495078617 50.500000000000007 0.11212496705042714 0.23979977324444232 1.0000000180025095e-35 13.500000000000002 18.500000000000004 0.28611875567998596 23.94392033542977 24.069570477918941 0.27074157368384327
decision_type=2 2 2 2 2 2 2 2 2 2 2 2 2 2 2 2 2 2 2 2 2 2 2 2 2 2 2 2 2 2
left_child=5 8 4 -4 -3 -1 -7 11 9 23 -11 -8 13 14 -9 17 -17 -15 19 -19 21 -21 -23 -2 -25 -26 -27 -16 29 -29
right_child=1 2 3 -5 -6 6 7 12 -10 10 -12 -13 -14 15 27 16 -18 18 -20 20 -22 22 -24 24 25 26 -28 28 -30 -31
leaf_value=-0.042062213631639409 -0.0081470492841673164 0.04729031927360039 0.092959805743726864 0.062172692431835611 -0.035163176344158435 -0.034032099440286408 0.047921260152166072 0.017523192797658533 -0.0085759468122701254 -0.00032881443494611772 0.054816441433171076 -0.02938495143035354 -0.053588518721578451 -0.0032976066839454396 -0.0054974793117461736 -0.0091235491194404088 0.042758980385884854 -0.043495906338510776 -0.0003819189656588507 0.061894434379464069 -0.026337902757863543 0.018537211416694663 0.083458568047569237 -0.025416353370582873 0.046338759528785002 -0.07117365805080994 0.049262846544927602 0.026812766021296036 -0.0055235667155812771 0.060175975427260164
leaf_weight=1223 184 55 30 31 72 1079 35 31 256 55 48 31 238 259 2039 48 41 65 692 48 37 149 44 70 30 40 30 32 178 30
leaf_count=1223 184 55 30 31 72 1079 35 31 256 55 48 31 238 259 2039 48 41 65 692 48 37 149 44 70 30 40 30 32 178 30
internal_value=-0.000312455 0.000774392 0.00274074 0.00739516 0.000464845 -0.000468014 -0.000317903 -0.000123936 0.000252803 0.000905023 0.00284135 0.003 -0.000177135 -9.19044e-05 -0.00035266 0.000343571 0.00240556 0.000200001 0.000480214 0.00170204 0.00244803 0.00305165 0.00211598 0.000335213 0.00143275 0.0029703 0.00133803 -0.000424779 0.000788383 0.00407937
internal_weight=7200 901 188 61 127 6299 5076 3997 713 457 103 66 3931 3693 2310 1383 89 1294 1035 343 278 241 193 354 170 100 70 2279 240 62
internal_count=7200 901 188 61 127 6299 5076 3997 713 457 103 66 3931 3693 2310 1383 89 1294 1035 343 278 241 193 354 170 100 70 2279 240 62
is_linear=0
shrinkage=0.05


Tree=25
num_leaves=31
num_cat=0
split_feature=6 2 5 10 11 9 6 8 4 6 2 3 2 9 4 2 5 8 9 11 8 2 8 4 6 9 6 9 6 5
split_gain=0.424313 0.359988 0.706997 0.266088 0.408456 0.860184 0.238435 0.218995 0.237434 0.204781 0.354022 0.161992 0.138578 0.124404 0.124136 0.127777 0.377452 0.224721 0.148846 0.143945 0.121836 0.133999 0.151916 0.254287 0.130209 0.189712 0.294052 0.526315 0.127946 0.214446
threshold=93.88336054199074 0.32374343661068589 0.29603547209181019 1.0000000180025095e-35 35.500000000000007 0.24049135952206244 96.701013981566959 0.25291686772329663 22.890390390390394 94.59253684651766 0.27435559324165198 0.53752468729427261 0.27840750782064655 0.21890983836307579 21.229967948717952 0.26417031499820032 0.26488306165839837 0.21041241881958969 0.17429401957196708 21.500000000000004 0.19195977643599474 0.25932452686449142 0.19447498081748579 22.983192090395484 91.403337650878385 0.2130993431855501 89.886873605119391 0.20548515032024253 92.466247007123428 0.15971014492753624
decision_type=2 2 2 2 2 2 2 2 2 2 2 2 2 2 2 2 2 2 2 2 2 2 2 2 2 2 2 2 2 2
left_child=20 3 -3 7 14 6 9 11 -9 10 -6 -2 -7 -13 -5 16 17 -16 -17 -20 -1 -22 23 -23 25 26 27 -24 29 -26
right_child=1 2 -4 4 5 12 -8 8 -10 -11 -12 13 -14 -15 15 18 -18 -19 19 -21 21 22 24 -25 28 -27 -28 -29 -30 -31
leaf_value=-0.062110648100039426 -0.0082187215299517578 0.052624984543720735 -0.003259056426751119 -0.0065357373031621965 -0.010860638526582745 0.047904746322287396 0.060664415961381279 0.08434197998061975 -0.022712475153802314 -0.0080187037884834871 0.080817441974158244 -0.014569326023281133 0.055376849008310185 0.023299599933089978 0.046842101651277418 0.063488444653822709 0.11357590355044214 -0.0037358788163493759 0.0069645145427226027 -0.0053133500632694093 -0.042743786759682136 0.050809419460427323 -0.085482242348932452 -0.071796640200969583 0.028497300603278583 -0.036832927598373713 -0.030836405825506116 0.063623579907876301 -0.004352702183403021 0.0011026982957281968
leaf_weight=608 1147 50 78 328 44 31 30 54 31 170 30 43 30 39 54 30 30 93 267 192 1155 56 50 38 63 612 168 32 1038 545
leaf_count=608 1147 50 78 328 44 31 30 54 31 170 30 43 30 39 54 30 30 93 267 192 1155 56 50 38 63 612 168 32 1038 545
internal_value=-0.000287795 0.000196069 0.0027752 7.01603e-05 0.000568798 0.00207589 0.000869092 -0.000434219 0.00200582 0.000342859 0.00252 -0.00060447 0.00739516 0.00153012 5.92979e-05 0.000451276 0.00159832 0.000537164 3.36749e-05 -0.00019239 -0.000594937 -0.000488423 -0.00028928 0.00167369 -0.00036349 -0.000860949 0.000298806 0.00273494 -0.000102609 0.000472908
internal_weight=7136 2771 128 2643 1329 335 274 1314 85 244 74 1229 61 82 994 666 177 147 489 459 4365 3757 2602 94 2508 862 250 82 1646 608
internal_count=7136 2771 128 2643 1329 335 274 1314 85 244 74 1229 61 82 994 666 177 147 489 459 4365 3757 2602 94 2508 862 250 82 1646 608
is_linear=0
shrinkage=0.05


Tree=26
num_leaves=31
num_cat=0
split_feature=6 2 8 8 4 9 10 9 11 5 2 6 8 2 2 9 9 9 6 6 7 8 8 5 9 6 4 6 9 2
split_gain=0.313021 0.413499 0.640677 0.797584 0.310389 0.202034 0.198461 0.306139 0.513822 0.380476 0.295409 0.193146 0.15162 0.170753 0.331604 0.410949 0.162221 0.138575 0.1504 0.18616 0.125974 0.126541 0.167933 0.183523 0.111177 0.0964874 0.186334 0.0936464 0.107759 0.278763
threshold=93.781729004054526 0.30993423816348725 0.20694972069935777 0.21770492543379458 21.74734042553192 0.23006599270737252 1.0000000180025095e-35 0.23064749502622539 36.500000000000007 0.26624472573839669 0.27778579908236284 97.493146794550825 0.26347363094044635 0.28574588428603032 0.29169648097769835 0.22687417944755708 0.2085624417907084 0.17560579915501942 94.499176949034776 94.38920578739355 10.500000000000002 0.19195977643599474 0.19355165605345401 0.2091287747309962 0.20886469387862164 90.43741096824111 24.403389830508477 90.586572828019257 0.25265617990535877 0.28164782037200431
decision_type=2 2 2 2 2 2 2 2 2 2 2 2 2 2 2 2 2 2 2 2 2 2 2 2 2 2 2 2 2 2
left_child=20 4 -3 -4 -2 -5 12 11 9 -9 -10 17 13 -6 15 16 -15 -8 19 24 21 -1 23 -23 -19 26 -24 -27 -29 -30
right_child=1 2 3 5 6 -7 7 8 10 -11 -12 -13 -14 14 -16 -17 -18 18 -20 -21 -22 22 25 -25 -26 27 -28 28 29 -31
leaf_value=-0.053351646646357914 -0.0063912763525313387 -0.02639914752251532 0.043395552274515248 0.019749064938662568 -0.02530723885669375 0.00096953340101192946 0.054086903102634004 -0.0030438171405107826 0.05062239828573472 0.074467004750592564 0.052459641803142811 0.052356560504453344 0.086800969681959966 0.0018399063948691396 -0.0073240640353133468 -0.023083883761647675 0.056993978803302703 0.03057012878964456 -0.0047841583788317578 0.05264340429020678 -0.046625803092357955 -0.073514496832904924 -0.043144198495283663 0.021706836396373663 -0.018693799695372861 0.0039670053301296268 0.054519484201220263 -0.0030970620675301939 0.039023207869941311 -0.017854838173515016
leaf_weight=535 919 77 37 51 552 63 47 104 46 52 38 37 31 34 166 33 31 57 366 33 379 38 673 30 82 62 36 2252 179 96
leaf_count=535 919 77 37 51 552 63 47 104 46 52 38 37 31 34 166 33 31 57 366 33 379 38 673 30 82 62 36 2252 179 96
internal_value=-0.000224743 0.00018061 0.00221834 0.00410198 3.04441e-06 0.00199131 0.000401463 0.000935112 0.00244813 0.000738855 0.00557647 0.000348316 -0.000142098 -0.000274172 0.000769813 0.00306061 0.00534091 0.000123722 -0.00010575 0.00110983 -0.00049521 -0.000410429 -0.000296702 0.00214493 0.00029643 -0.00034768 -0.000864083 -0.000205983 -0.000253361 0.000679349
internal_weight=7136 2856 228 151 2628 114 1709 862 240 156 84 622 847 816 264 98 65 585 538 172 4280 3901 3366 68 139 3298 709 2589 2527 275
internal_count=7136 2856 228 151 2628 114 1709 862 240 156 84 622 847 816 264 98 65 585 538 172 4280 3901 3366 68 139 3298 709 2589 2527 275
is_linear=0
shrinkage=0.05


Tree=27
num_leaves=31
num_cat=0
split_feature=1 6 6 5 11 2 1 0 5 8 5 5 0 1 7 9 0 6 6 8 6 6 0 1 9 7 1 1 2 1
split_gain=0.310293 0.244615 0.438777 0.204292 0.255266 0.472243 0.295476 0.277874 0.169513 0.154915 0.151833 0.135996 0.178881 0.135817 0.123507 0.242728 0.323353 0.757631 0.225908 0.286171 0.204788 0.299499 0.191737 0.203897 0.165238 0.239851 0.306983 0.163612 0.157384 0.150354
threshold=0.13332334731376075 94.313088503086675 94.435650976791962 0.34708049886621323 44.500000000000007 0.29876781641095412 0.13794802524827759 0.25526478836496452 0.29008882655446477 0.19923210706284641 0.29860438069393297 0.21231060606060609 0.18215103818433784 0.075083115190474628 6.5000000000000009 0.21335855891272607 0.25912110340631067 93.139837257748169 89.886873605119391 0.21412597421350957 91.637160153286246 91.917160384960297 0.20153565007221388 0.12470378980587705 0.24729307731218791 9.5000000000000018 0.10136432922994885 0.12470378980587705 0.30019148659227202 0.080087033149205969
decision_type=2 2 2 2 2 2 2 2 2 2 2 2 2 2 2 2 2 2 2 2 2 2 2 2 2 2 2 2 2 2
left_child=9 -2 -3 4 6 10 7 -4 -9 11 -6 -1 -13 -11 15 16 18 -18 19 -15 -20 -22 -23 -24 28 26 -26 -19 -16 -17
right_child=1 2 3 -5 5 -7 -8 8 -10 13 -12 12 -14 14 24 29 17 27 20 -21 21 22 23 -25 25 -27 -28 -29 -30 -31
leaf_value=-0.05807342160390834 -0.011022600264093435 0.03128661685625761 0.048796764412667032 -0.0029375945134010625 -0.0136646383628388 0.050006249237726869 -0.0019953102135710265 -0.028024020273156591 0.030320228662010798 -0.066550123371557635 0.05009263923178521 0.0087155369495959534 -0.0031708967514879542 -0.084836956374703731 -0.035704129389407778 0.0076748377686162474 0.06095412258736186 0.039974465504113127 -0.039342163652485863 0.024343726624584196 0.022544548063100484 0.025777644477233738 -0.028523757610376684 0.054708296477852386 -0.045484257695445118 -0.038701162322101079 0.064667578795248246 -0.047781476241049302 0.0019676460969911061 -0.0025028176367565373
leaf_weight=677 326 38 59 152 33 36 299 42 30 208 30 30 559 34 839 118 30 31 163 30 40 185 287 31 30 62 55 43 42 2597
leaf_count=677 326 38 59 152 33 36 299 42 30 208 30 30 559 34 839 118 30 31 163 30 40 185 287 31 30 62 55 43 42 2597
internal_value=-0.000238754 0.000556885 0.00107153 0.000774928 0.00123868 0.003515 0.000707658 0.00267803 0.000575344 -0.000375327 0.000867189 -0.000867402 -0.000311016 -0.000246062 -0.000189583 -5.11128e-05 0.000673144 0.00327619 0.000317771 0.00313846 5.79929e-05 0.000524818 0.000189486 -0.000554858 -0.000672496 0.000875001 0.00258721 0.000520001 -0.000931404 -0.000284424
internal_weight=7136 1045 719 681 529 99 430 131 72 6091 63 1266 589 4825 4617 3589 874 104 770 64 706 543 503 318 1028 147 85 74 881 2715
internal_count=7136 1045 719 681 529 99 430 131 72 6091 63 1266 589 4825 4617 3589 874 104 770 64 706 543 503 318 1028 147 85 74 881 2715
is_linear=0
shrinkage=0.05


Tree=28
num_leaves=31
num_cat=0
split_feature=9 4 6 8 0 1 9 10 9 0 4 11 8 0 1 1 4 4 6 4 11 0 6 11 4 3 8 11 3 3
split_gain=0.246793 0.173312 0.216857 0.214141 0.445788 0.268281 0.161137 0.208984 0.140938 0.160241 0.147402 0.393964 0.409179 0.317437 0.208153 0.227261 0.189008 0.154648 0.127607 0.126378 0.12451 0.169808 0.122695 0.248052 0.140908 0.198444 0.178684 0.11969 0.116232 0.256913
threshold=0.20505744851456006 21.830459770114945 95.821244013321817 0.23454023578736247 0.28949557754619498 0.13485069884059359 0.21032741710754155 1.0000000180025095e-35 0.27026392858403026 0.25663247590536703 22.100724637681164 18.500000000000004 0.21900781810840794 0.22138120676567896 0.14426135618716407 0.15244364142278477 23.243434343434348 24.803225806451618 92.077935045710959 23.669270833333339 29.500000000000004 0.21068002932335847 96.873165414617304 27.500000000000004 23.588989441930625 0.49321211376620189 0.2128043839190418 44.500000000000007 0.51741112566079839 0.54892840857273162
decision_type=2 2 2 2 2 2 2 2 2 2 2 2 2 2 2 2 2 2 2 2 2 2 2 2 2 2 2 2 2 2
left_child=22 6 8 5 -5 -4 7 -2 10 19 11 -3 -13 -14 17 16 -16 -12 -8 -10 21 -19 24 -24 -1 26 -26 -7 -20 -30
right_child=1 2 3 4 -6 27 18 -9 9 -11 14 12 13 -15 15 -17 -18 20 28 -21 -22 -23 23 -25 25 -27 -28 -29 29 -31
leaf_value=-0.024982205122220085 -0.041229673981730004 -0.024348230821768128 -0.0083400229816362036 0.084926976229396267 -0.013784261056437637 0.0089631831246049405 -0.03860528573000388 0.038490551626657869 -0.0011231746752299037 0.05222277153702324 -0.0035444957896646301 0.041628163954409637 -0.067048658425180499 0.13111331876475221 0.061166271340721237 -0.02388890868859303 0.0078097030119372614 0.024026490576706923 -0.011592130922581515 0.016580347810481833 0.040483244785508965 -0.028730046374287683 -0.0081459862418944654 0.041742527095726539 -0.0063244842993506944 0.046141508657027569 0.0060431257846498502 0.053344488214977739 0.057475372560298991 -0.0069015159144733239
leaf_weight=1702 66 106 81 38 37 57 408 62 86 32 2457 39 48 30 30 30 36 31 1003 30 36 47 37 33 285 58 32 30 78 91
leaf_count=1702 66 106 81 38 37 57 408 62 86 32 2457 39 48 30 30 30 36 31 1003 30 36 47 37 33 285 58 32 30 78 91
internal_value=-0.000259772 -6.68322e-05 0.000145797 0.00157992 0.0037829 0.000579883 -0.00047513 0.00122481 3.06036e-05 0.0015302 -4.66952e-05 0.00118527 0.00317373 0.00105063 -0.000150111 0.00212371 0.00374627 -0.000235807 -0.000613534 0.000649574 0.00155652 0.000417723 -0.000707866 0.00133803 -0.000777429 9.97355e-05 -0.000394653 0.00249432 -0.000347825 0.000861766
internal_weight=7136 4989 3281 243 75 168 1708 128 3038 148 2890 223 117 78 2667 96 66 2571 1580 116 114 78 2147 70 2077 375 317 87 1172 169
internal_count=7136 4989 3281 243 75 168 1708 128 3038 148 2890 223 117 78 2667 96 66 2571 1580 116 114 78 2147 70 2077 375 317 87 1172 169
is_linear=0
shrinkage=0.05


Tree=29
num_leaves=31
num_cat=0
split_feature=1 8 6 9 4 11 1 9 3 0 4 0 8 6 1 9 4 8 6 6 1 1 3 3 4 10 9 8 3 0
split_gain=0.204455 0.181647 0.176512 0.176891 0.156472 0.132005 0.255221 0.265517 0.191913 0.290534 0.498407 0.155132 0.143729 0.213482 0.152144 0.183133 0.14269 0.0990745 0.0975693 0.290191 0.161956 0.148037 0.169175 0.239505 0.179569 0.252891 0.140028 0.193942 0.194941 0.450762
threshold=0.075083115190474628 0.19045482071649053 90.43741096824111 0.18112411958173652 24.403389830508477 47.500000000000007 0.14659817743020298 0.24888390632785254 0.42957991548595581 0.20389077306007194 23.168439716312061 0.21511218163165177 0.26263252884893984 91.53273373156091 0.12594468028402281 0.27588835155592945 24.054804804804807 0.22987473759174096 91.108382612527961 91.022095108500068 0.08237725893189099 0.097421632894257676 0.31511718496396807 0.30493902439024395 24.739849624060152 1.0000000180025095e-35 0.20054228932529697 0.22623669008352743 0.41180940461290905 0.22051345941060707
decision_type=2 2 2 2 2 2 2 2 2 2 2 2 2 2 2 2 2 2 2 2 2 2 2 2 2 2 2 2 2 2
left_child=-1 -2 4 -4 -3 12 7 8 9 17 -11 -12 18 -14 -15 -16 -10 -7 19 20 -5 22 23 -20 -24 -26 -23 28 29 -28
right_child=1 2 3 5 -6 6 -8 -9 16 10 11 -13 13 14 15 -17 -18 -19 21 -21 -22 26 24 -25 25 -27 27 -29 -30 -31
leaf_value=-0.07653332641661148 -0.031353909652715048 -0.038805518669272454 0.044897184295401224 0.015714222547382823 0.05146453496985736 -0.048632596924447546 0.026257373929544709 0.045810670116478457 -0.025506480261019683 0.080237921037433046 0.00087469291494499221 -0.051791592994638938 0.034789198653759082 -0.0041393674249496004 0.078946194149885379 -0.030563442373041108 0.04353945242573385 0.01630251594665505 -0.022592945735753774 0.086881524097317198 -0.021404357137007505 -0.0059294898740421577 -0.040164747798207438 0.010881603514932904 0.053626557661353769 -0.030946825911788902 0.0037064771397954154 -0.0032262282967166025 0.0017254362425522494 0.069313704730072243
leaf_weight=287 870 703 41 31 39 94 54 44 201 30 41 60 30 140 40 38 50 30 83 53 174 486 873 31 31 32 241 1309 946 54
leaf_count=287 870 703 41 31 39 94 54 44 201 30 41 60 30 140 40 38 50 30 83 53 174 486 873 31 31 32 241 1309 946 54
internal_value=-0.000189714 -0.000134816 -3.6537e-05 6.57708e-05 -0.000757737 3.96397e-05 0.000733886 0.00040835 8.08693e-05 0.00104492 0.00267803 0.000965688 -5.18166e-05 0.00111647 0.000561645 0.00231646 -0.000898808 -0.000687999 -0.000118756 0.000822395 -3.64063e-05 -0.000178369 -0.000689818 0.00112174 -0.000911418 0.00164844 -1.31566e-06 0.000147003 0.000594607 0.00171453
internal_weight=7136 6849 5979 5237 742 5196 604 550 506 255 131 101 4592 248 218 78 251 124 4344 258 205 4086 1050 114 936 63 3036 2550 1241 295
internal_count=7136 6849 5979 5237 742 5196 604 550 506 255 131 101 4592 248 218 78 251 124 4344 258 205 4086 1050 114 936 63 3036 2550 1241 295
is_linear=0
shrinkage=0.05


Tree=30
num_leaves=31
num_cat=0
split_feature=1 9 8 5 5 5 4 8 5 2 3 6 1 2 10 2 2 6 2 1 2 2 5 8 6 4 6 3 3 3
split_gain=0.376293 0.252698 0.361071 0.210172 0.282497 0.247509 0.253994 0.357657 1.00484 0.171686 0.320042 0.146993 0.160468 0.349828 0.33076 0.638924 0.568068 0.380061 0.595711 0.207694 0.151234 0.20821 0.308875 0.258258 0.15297 0.139911 0.174542 0.159886 0.234465 0.1609
threshold=0.13219520332561246 0.27026392858403026 0.24155307076637231 0.21380952380952384 0.29603547209181019 0.29008882655446477 23.94392033542977 0.2407087882159944 0.25694980694980701 0.29105175581129156 0.50336158192090397 91.273820484441288 0.11594738081476251 0.26509401228182744 1.0000000180025095e-35 0.26599691714129087 0.30261495944842259 95.1436374169689 0.27626897438126241 0.10976101891769524 0.27821312123737657 0.28536717779554649 0.22068372803666922 0.209690499584618 93.294043563537244 23.243434343434348 92.162678517369685 0.51015254586683167 0.44595753558017714 0.54892840857273162
decision_type=2 2 2 2 2 2 2 2 2 2 2 2 2 2 2 2 2 2 2 2 2 2 2 2 2 2 2 2 2 2
left_child=1 11 -3 -2 5 6 7 25 -9 10 -6 -1 13 -13 16 -16 -15 20 19 -19 -17 22 -22 -23 -24 26 -5 28 -28 -29
right_child=3 2 -4 4 9 -7 -8 8 -10 -11 -12 12 -14 14 15 17 -18 18 -20 -21 21 23 24 -25 -26 -27 27 29 -30 -31
leaf_value=-0.033958841383592557 -0.010070595082903604 0.018161963541097483 0.0025829646054052816 0.044060495574093875 -0.013596831038489821 0.050805761468846425 0.06677317941441871 0.090951391878456037 -0.02966754561590064 -0.004177245120721618 0.030519703675825641 -0.032092095870215276 -0.0068399825473760452 -0.0055692613658569982 0.041334219177665221 -0.0021075706734620761 0.022061873960414081 0.076707807859190943 -0.038147808607825462 0.044745233773878408 0.019649636759515539 0.047192054324712331 -0.093579982034453946 -0.022511152317081368 0.034181983852818343 -0.018227939033843534 0.015277477048967243 0.043098238653611023 -0.0185046617884028 -0.0033412751870791294
leaf_weight=1389 181 32 181 34 58 33 35 32 35 377 46 1674 1247 714 30 340 32 31 53 37 46 42 37 94 31 74 30 42 120 37
leaf_count=1389 181 32 181 34 58 33 35 32 35 377 46 1674 1247 714 30 340 32 31 53 37 46 42 37 94 31 74 30 42 120 37
internal_value=-0.000219173 -0.000376808 0.00131075 0.00061586 0.000912475 0.00178013 0.00145796 0.0010963 0.00440441 5.91301e-05 0.00184762 -0.000439029 -0.000297572 -0.000108 0.000449934 0.00119744 -0.000293171 0.000889749 0.00343033 0.00649276 0.000363792 0.00129482 0.00286087 -2.91957e-05 0.000695654 0.000427516 0.000967804 0.000463045 -0.000496687 0.00226875
internal_weight=7144 6010 213 1134 953 472 439 404 67 481 104 5797 4408 3161 1487 741 746 711 121 68 590 250 114 136 68 337 263 229 150 79
internal_count=7144 6010 213 1134 953 472 439 404 67 481 104 5797 4408 3161 1487 741 746 711 121 68 590 250 114 136 68 337 263 229 150 79
is_linear=0
shrinkage=0.05


Tree=31
num_leaves=31
num_cat=0
split_feature=6 9 6 5 8 8 9 4 10 4 4 9 5 5 2 0 6 4 4 7 9 8 0 3 0 4 5 5 6 3
split_gain=0.29436 0.311649 0.374391 0.387747 0.220938 0.220694 0.275818 0.26412 0.231844 0.447031 0.490355 0.633753 0.19561 0.380542 0.17816 0.170796 0.431936 0.143648 0.286267 0.168807 0.185312 0.25527 0.389207 0.57419 0.189746 0.187652 0.138218 0.184612 0.148178 0.184662
threshold=95.027198950864786 0.27588835155592945 93.453273745910863 0.21140303358613219 0.21677164536888063 0.24271991118752997 0.25497016247578447 23.114195230998515 1.0000000180025095e-35 22.983192090395484 22.632456140350879 0.20965133388778712 0.21020142949967513 0.18063922356091033 0.31989847715736047 0.32392555849234228 94.282064152004054 21.859126984126988 21.910427807486634 5.5000000000000009 0.23141139643389172 0.22454260274103618 0.20691791650643082 0.43486992498148691 0.1793176196711771 24.376179245283023 0.24626532887402455 0.29603547209181019 96.247772318525747 0.43543857403891967
decision_type=2 2 2 2 2 2 2 2 2 2 2 2 2 2 2 2 2 2 2 2 2 2 2 2 2 2 2 2 2 2
left_child=1 4 3 -3 14 8 7 -7 26 10 12 -12 13 -10 -1 17 -17 -6 -19 20 21 -20 24 -24 -23 -22 -2 28 29 -28
right_child=5 2 -4 -5 15 6 -8 -9 9 -11 11 -13 -14 -15 -16 16 -18 18 19 -21 25 22 23 -25 -26 -27 27 -29 -30 -31
leaf_value=-0.023516323229965146 -0.032568188755965975 0.040131182280077726 -0.015415898773019613 0.0021100438836311338 -0.028205974120650304 0.043235598915359302 0.026027248719211894 0.050240164606261101 -0.023959370699928567 -0.0056319431080062033 0.080953042004866096 0.0047462274044422761 -0.00013628085534369032 0.041553576004253384 0.02626731028714201 -0.038271373642317835 0.038509078304022865 0.02047079332518742 -0.0026533915671103285 -0.0036202543934428302 -0.016996202387464503 0.0062880179210769898 0.043534956184921647 0.0029224212771926193 -0.043204021969645776 0.05287788835751997 0.0097775022656067696 -0.037124547126681888 0.026317385931768619 -0.0648450060453441
leaf_weight=2505 302 47 55 49 999 46 109 32 56 244 39 41 217 35 59 35 30 32 123 1324 260 30 41 52 56 30 30 168 46 52
leaf_count=2505 302 47 55 49 999 46 109 32 56 244 39 41 217 35 59 35 30 32 123 1324 260 30 41 52 56 30 30 168 46 52
internal_value=-0.000275156 -0.000434793 0.00179934 0.0036701 -0.000495606 0.000369889 0.00196543 0.00421519 0.000125915 0.00079305 0.00184576 0.00530864 0.00093204 0.00286413 -0.000836646 -0.00020511 0.00231061 -0.000261362 -1.12864e-05 -9.07654e-05 0.000610457 0.00147525 0.002675 0.00489894 0.000241381 -0.000292095 -0.000579297 0.000188554 0.0016124 0.000325303
internal_weight=7144 5727 151 96 5576 1417 187 78 1230 632 388 80 308 91 2564 3012 65 2947 1948 1916 592 302 179 93 86 290 598 296 128 82
internal_count=7144 5727 151 96 5576 1417 187 78 1230 632 388 80 308 91 2564 3012 65 2947 1948 1916 592 302 179 93 86 290 598 296 128 82
is_linear=0
shrinkage=0.05


Tree=32
num_leaves=31
num_cat=0
split_feature=1 11 2 6 3 9 4 2 2 0 11 10 4 4 5 9 2 2 2 3 0 1 0 0 1 0 11 5 1 3
split_gain=0.376293 0.36819 0.673811 0.167147 0.15886 0.147881 0.295076 0.326934 1.13913 0.28917 0.150071 0.127444 0.213991 0.222982 0.178484 0.384664 0.169084 0.574229 0.156821 0.289303 0.482864 0.225674 0.432902 0.42032 0.442508 0.416309 0.345289 0.193132 0.161958 0.12819
threshold=0.13219520332561246 53.500000000000007 0.29788065809392317 91.273820484441288 0.54892840857273162 0.24888390632785254 21.169047619047621 0.26888913964289557 0.26311743171104213 0.19649696336383551 44.500000000000007 1.0000000180025095e-35 23.504545454545458 23.588989441930625 0.11970149253731345 0.21967285695388197 0.25972327563389758 0.26047695112568164 0.26531010375277703 0.38011176550019221 0.19555295342180593 0.12105900344080542 0.23589334062514891 0.24195275264212202 0.11212496705042714 0.27930444410891342 44.500000000000007 0.14093535572408813 0.09297718834611457 0.4035481079380065
decision_type=2 2 2 2 2 2 2 2 2 2 2 2 2 2 2 2 2 2 2 2 2 2 2 2 2 2 2 2 2 2
left_child=3 4 -3 -1 -2 11 -7 8 9 -8 -9 12 14 -14 15 -5 -13 -18 -19 20 28 22 27 24 -24 26 -25 -21 -20 -15
right_child=1 2 -4 5 -6 6 7 10 -10 -11 -12 16 13 29 -16 -17 17 18 19 21 -22 -23 23 25 -26 -27 -28 -29 -30 -31
leaf_value=-0.030943334274011733 0.0041493831445278779 -0.0082960488999551333 0.064566607722846572 -0.087619419985645625 -0.0076395311972156724 -0.030472946169439564 -0.0019862951896154617 -0.0036972549629078035 0.04901540485729669 0.044039085907066927 0.037852851028996465 -0.04005611961899163 0.017399056125524 0.0010782869197186026 -0.034434927465803254 0.01000974042938366 0.051807442313883123 -0.014341437406621955 0.0067932241753125514 0.019224825775819722 0.048044035050930009 -0.00800639880835422 0.055781245760660597 -0.038221981311754832 0.026478239325491343 0.043271589964744873 0.061269593580871098 -0.009740024759335407 -0.076032761879398655 -0.0046201733379428482
leaf_weight=1450 879 40 31 68 184 128 85 193 36 32 31 602 34 121 1518 52 38 194 31 30 31 329 30 163 43 32 31 437 42 229
leaf_count=1450 879 40 31 68 184 128 85 193 36 32 31 602 34 121 1518 52 38 194 31 30 31 329 30 163 43 32 31 437 42 229
internal_value=-0.000219173 0.00061586 0.00407639 -0.000376808 0.00038111 -0.000228019 0.000578065 0.00128175 0.0030552 0.000631357 6.22236e-05 -0.000328524 -0.000609489 0.000451949 -0.000858449 0.000991737 -4.8917e-05 0.000246859 7.92697e-05 0.000292918 0.0028 5.24649e-05 0.000522818 0.002005 0.00527703 0.000929517 4.61553e-05 -0.000428417 0.000547299 7.12265e-05
internal_weight=7144 1134 71 6010 1063 4560 505 377 153 117 224 4055 2022 384 1638 120 2033 1431 1393 1199 104 1095 766 299 73 226 194 467 73 350
internal_count=7144 1134 71 6010 1063 4560 505 377 153 117 224 4055 2022 384 1638 120 2033 1431 1393 1199 104 1095 766 299 73 226 194 467 73 350
is_linear=0
shrinkage=0.05


Tree=33
num_leaves=31
num_cat=0
split_feature=1 11 2 3 4 4 4 9 11 0 2 0 9 6 5 6 6 11 9 6 1 2 6 1 2 3 4 2 4 5
split_gain=0.312328 0.286641 0.427222 0.209877 0.138907 0.628354 0.182158 0.185494 0.201689 0.257183 0.157249 0.144781 0.138638 0.299402 0.329457 0.144207 0.259354 0.455254 0.160951 0.158956 0.139428 0.274868 0.132065 0.126599 0.178846 0.117726 0.251229 0.114013 0.169416 0.270513
threshold=0.13332334731376075 53.500000000000007 0.29788065809392317 0.54892840857273162 23.304951690821259 23.158492822966512 22.80243902439025 0.26166063095196962 28.500000000000004 0.28500734573947112 0.31989847715736047 0.26739457494823715 0.27588835155592945 93.453273745910863 0.21140303358613219 93.781729004054526 93.975771570195846 25.500000000000004 0.2168639674978986 90.43741096824111 0.11372441814341921 0.30019148659227202 91.510871456339572 0.11067555218918824 0.27515440143419312 0.49022338740510135 23.640754716981135 0.29876781641095412 20.607692307692314 0.24305019305019307
decision_type=2 2 2 2 2 2 2 2 2 2 2 2 2 2 2 2 2 2 2 2 2 2 2 2 2 2 2 2 2 2
left_child=12 3 -3 4 5 6 7 8 10 11 27 -10 15 14 -14 18 17 -17 -1 -20 21 23 -22 -21 -25 26 -6 28 -2 -30
right_child=1 2 -4 -5 25 -7 -8 -9 9 -11 -12 -13 13 -15 -16 16 -18 -19 19 20 22 -23 -24 24 -26 -27 -28 -29 29 -31
leaf_value=-0.027149467765964466 -0.006778380521208726 -0.0060909919941886381 0.06133827733670421 -0.0092735791469009555 -0.079276457245274837 0.0049581252335561179 -0.0067910261642744971 0.087018083883300706 0.028818192950705993 0.037265766216427985 0.025772700419716084 -0.085953999072093237 0.037347329920053234 -0.0096616260938259119 -0.0031511521132519434 -0.0081356981203493644 -0.0016834151573855917 0.029814658435248671 -0.044700903489977191 -0.00043008207994877723 0.010716416158657935 0.052084057189692612 -0.026103417707100136 -0.032670516709442099 0.034799816092837645 -0.0063190576771045021 0.039617640882182004 -0.0095014205842526272 -0.079827638700866593 0.043172227742469815
leaf_weight=1848 61 35 31 174 38 40 119 31 30 30 44 30 47 63 41 85 1887 57 468 1150 51 31 292 37 30 150 33 106 39 66
leaf_count=1848 61 35 31 174 38 40 119 31 30 30 44 30 47 63 41 85 1887 57 468 1150 51 31 292 37 30 150 33 106 39 66
internal_value=-0.000212175 0.000580814 0.00374627 0.000366433 0.000702324 0.00109883 0.000657093 0.001129 0.000837839 0.00291209 0.000239749 0.000983608 -0.000349949 0.00114145 0.00301124 -0.000388073 -4.60577e-05 0.00200699 -0.000565633 -0.000261406 -2.29257e-05 0.000222579 -0.000914243 0.000102218 0.00219853 -0.000367116 0.00129861 -0.000212453 0.000604792 0.00181604
internal_weight=7144 1057 66 991 817 596 556 437 406 90 316 60 6087 151 88 5936 2029 142 3907 2059 1591 1248 343 1217 67 221 71 272 166 105
internal_count=7144 1057 66 991 817 596 556 437 406 90 316 60 6087 151 88 5936 2029 142 3907 2059 1591 1248 343 1217 67 221 71 272 166 105
is_linear=0
shrinkage=0.05


Tree=34
num_leaves=31
num_cat=0
split_feature=1 11 2 7 3 5 5 9 6 9 9 4 9 9 9 4 1 4 4 6 11 11 9 6 9 3 6 11 5 10
split_gain=0.284387 0.250463 0.474852 0.159384 0.147869 0.181944 0.362148 0.330739 0.199538 0.283315 0.323261 0.13473 0.395209 0.445819 0.120136 0.137524 0.138278 0.134789 0.246876 0.235119 0.176324 0.178575 0.141469 0.115301 0.262905 0.230998 0.215921 0.438191 0.303799 0.139362
